SNNS network definition file V1.4-3D
generated at Wed Oct 17 18:51:07 2007

network name : default
source files :
no. of units : 218
no. of connections : 8856
no. of unit types : 0
no. of site types : 0


learning function : Std_Backpropagation
update function   : Topological_Order


unit default section :

act      | bias     | st | subnet | layer | act func     | out func
---------|----------|----|--------|-------|--------------|-------------
 0.00000 |  0.00000 | h  |      0 |     1 | Act_Logistic | Out_Identity 
---------|----------|----|--------|-------|--------------|-------------


unit definition section :

no. | typeName | unitName | act      | bias     | st | position | act func | out func | sites
----|----------|----------|----------|----------|----|----------|----------|----------|-------
  1 |          | noName   |  0.00000 |  0.00000 | i  |  1, 1, 1 |||
  2 |          | noName   |  0.00000 |  0.00000 | i  |  2, 1, 1 |||
  3 |          | noName   |  0.00000 |  0.00000 | i  |  3, 1, 1 |||
  4 |          | noName   |  0.00000 |  0.00000 | i  |  4, 1, 1 |||
  5 |          | noName   |  0.00000 |  0.00000 | i  |  5, 1, 1 |||
  6 |          | noName   |  0.00000 |  0.00000 | i  |  6, 1, 1 |||
  7 |          | noName   |  0.00000 |  0.00000 | i  |  1, 2, 1 |||
  8 |          | noName   |  0.00000 |  0.00000 | i  |  2, 2, 1 |||
  9 |          | noName   |  0.00000 |  0.00000 | i  |  3, 2, 1 |||
 10 |          | noName   |  0.00000 |  0.00000 | i  |  4, 2, 1 |||
 11 |          | noName   |  0.00000 |  0.00000 | i  |  5, 2, 1 |||
 12 |          | noName   |  0.00000 |  0.00000 | i  |  6, 2, 1 |||
 13 |          | noName   |  0.00000 |  0.00000 | i  |  1, 3, 1 |||
 14 |          | noName   |  0.00000 |  0.00000 | i  |  2, 3, 1 |||
 15 |          | noName   |  0.00000 |  0.00000 | i  |  3, 3, 1 |||
 16 |          | noName   |  0.00000 |  0.00000 | i  |  4, 3, 1 |||
 17 |          | noName   |  0.00000 |  0.00000 | i  |  5, 3, 1 |||
 18 |          | noName   |  0.00000 |  0.00000 | i  |  6, 3, 1 |||
 19 |          | noName   |  0.00000 |  0.00000 | i  |  1, 4, 1 |||
 20 |          | noName   |  0.00000 |  0.00000 | i  |  2, 4, 1 |||
 21 |          | noName   |  0.00000 |  0.00000 | i  |  3, 4, 1 |||
 22 |          | noName   |  0.00000 |  0.00000 | i  |  4, 4, 1 |||
 23 |          | noName   |  0.00000 |  0.00000 | i  |  5, 4, 1 |||
 24 |          | noName   |  0.00000 |  0.00000 | i  |  6, 4, 1 |||
 25 |          | noName   |  0.00000 |  0.00000 | i  |  1, 5, 1 |||
 26 |          | noName   |  0.00000 |  0.00000 | i  |  2, 5, 1 |||
 27 |          | noName   |  0.00000 |  0.00000 | i  |  3, 5, 1 |||
 28 |          | noName   |  0.00000 |  0.00000 | i  |  4, 5, 1 |||
 29 |          | noName   |  0.00000 |  0.00000 | i  |  5, 5, 1 |||
 30 |          | noName   |  0.00000 |  0.00000 | i  |  6, 5, 1 |||
 31 |          | noName   |  0.00000 |  0.00000 | i  |  1, 6, 1 |||
 32 |          | noName   |  0.00000 |  0.00000 | i  |  2, 6, 1 |||
 33 |          | noName   |  0.00000 |  0.00000 | i  |  3, 6, 1 |||
 34 |          | noName   |  0.00000 |  0.00000 | i  |  4, 6, 1 |||
 35 |          | noName   |  0.00000 |  0.00000 | i  |  5, 6, 1 |||
 36 |          | noName   |  0.00000 |  0.00000 | i  |  6, 6, 1 |||
 37 |          | noName   |  0.00000 |  0.00000 | i  |  1, 7, 1 |||
 38 |          | noName   |  0.00000 |  0.00000 | i  |  2, 7, 1 |||
 39 |          | noName   |  0.00000 |  0.00000 | i  |  3, 7, 1 |||
 40 |          | noName   |  0.00000 |  0.00000 | i  |  4, 7, 1 |||
 41 |          | noName   |  0.00000 |  0.00000 | i  |  5, 7, 1 |||
 42 |          | noName   |  0.00000 |  0.00000 | i  |  6, 7, 1 |||
 43 |          | noName   |  0.00000 |  0.00000 | i  |  1, 8, 1 |||
 44 |          | noName   |  0.00000 |  0.00000 | i  |  2, 8, 1 |||
 45 |          | noName   |  0.00000 |  0.00000 | i  |  3, 8, 1 |||
 46 |          | noName   |  0.00000 |  0.00000 | i  |  4, 8, 1 |||
 47 |          | noName   |  0.00000 |  0.00000 | i  |  5, 8, 1 |||
 48 |          | noName   |  0.00000 |  0.00000 | i  |  6, 8, 1 |||
 49 |          | noName   |  0.00000 |  0.00000 | i  |  1, 9, 1 |||
 50 |          | noName   |  0.00000 |  0.00000 | i  |  2, 9, 1 |||
 51 |          | noName   |  0.00000 |  0.00000 | i  |  3, 9, 1 |||
 52 |          | noName   |  0.00000 |  0.00000 | i  |  4, 9, 1 |||
 53 |          | noName   |  0.00000 |  0.00000 | i  |  5, 9, 1 |||
 54 |          | noName   |  0.00000 |  0.00000 | i  |  6, 9, 1 |||
 55 |          | noName   |  0.00000 |  0.00000 | i  |  1,10, 1 |||
 56 |          | noName   |  0.00000 |  0.00000 | i  |  2,10, 1 |||
 57 |          | noName   |  0.00000 |  0.00000 | i  |  3,10, 1 |||
 58 |          | noName   |  0.00000 |  0.00000 | i  |  4,10, 1 |||
 59 |          | noName   |  0.00000 |  0.00000 | i  |  5,10, 1 |||
 60 |          | noName   |  0.00000 |  0.00000 | i  |  6,10, 1 |||
 61 |          | noName   |  0.00000 |  0.00000 | i  |  1,11, 1 |||
 62 |          | noName   |  0.00000 |  0.00000 | i  |  2,11, 1 |||
 63 |          | noName   |  0.00000 |  0.00000 | i  |  3,11, 1 |||
 64 |          | noName   |  0.00000 |  0.00000 | i  |  4,11, 1 |||
 65 |          | noName   |  0.00000 |  0.00000 | i  |  5,11, 1 |||
 66 |          | noName   |  0.00000 |  0.00000 | i  |  6,11, 1 |||
 67 |          | noName   |  0.00000 |  0.00000 | i  |  1,12, 1 |||
 68 |          | noName   |  0.00000 |  0.00000 | i  |  2,12, 1 |||
 69 |          | noName   |  0.00000 |  0.00000 | i  |  3,12, 1 |||
 70 |          | noName   |  0.00000 |  0.00000 | i  |  4,12, 1 |||
 71 |          | noName   |  0.00000 |  0.00000 | i  |  5,12, 1 |||
 72 |          | noName   |  0.00000 |  0.00000 | i  |  6,12, 1 |||
 73 |          | noName   |  0.00000 |  0.00000 | i  |  1,13, 1 |||
 74 |          | noName   |  0.00000 |  0.00000 | i  |  2,13, 1 |||
 75 |          | noName   |  0.00000 |  0.00000 | i  |  3,13, 1 |||
 76 |          | noName   |  0.00000 |  0.00000 | i  |  4,13, 1 |||
 77 |          | noName   |  0.00000 |  0.00000 | i  |  5,13, 1 |||
 78 |          | noName   |  0.00000 |  0.00000 | i  |  6,13, 1 |||
 79 |          | noName   |  0.00000 |  0.00000 | i  |  1,14, 1 |||
 80 |          | noName   |  0.00000 |  0.00000 | i  |  2,14, 1 |||
 81 |          | noName   |  0.00000 |  0.00000 | i  |  3,14, 1 |||
 82 |          | noName   |  0.00000 |  0.00000 | i  |  4,14, 1 |||
 83 |          | noName   |  0.00000 |  0.00000 | i  |  5,14, 1 |||
 84 |          | noName   |  0.00000 |  0.00000 | i  |  6,14, 1 |||
 85 |          | noName   |  0.00000 |  0.00000 | i  |  1,15, 1 |||
 86 |          | noName   |  0.00000 |  0.00000 | i  |  2,15, 1 |||
 87 |          | noName   |  0.00000 |  0.00000 | i  |  3,15, 1 |||
 88 |          | noName   |  0.00000 |  0.00000 | i  |  4,15, 1 |||
 89 |          | noName   |  0.00000 |  0.00000 | i  |  5,15, 1 |||
 90 |          | noName   |  0.00000 |  0.00000 | i  |  6,15, 1 |||
 91 |          | noName   |  0.00000 |  0.00000 | i  |  1,16, 1 |||
 92 |          | noName   |  0.00000 |  0.00000 | i  |  2,16, 1 |||
 93 |          | noName   |  0.00000 |  0.00000 | i  |  3,16, 1 |||
 94 |          | noName   |  0.00000 |  0.00000 | i  |  4,16, 1 |||
 95 |          | noName   |  0.00000 |  0.00000 | i  |  5,16, 1 |||
 96 |          | noName   |  0.00000 |  0.00000 | i  |  6,16, 1 |||
 97 |          | noName   |  0.00000 |  0.00000 | i  |  1,17, 1 |||
 98 |          | noName   |  0.00000 |  0.00000 | i  |  2,17, 1 |||
 99 |          | noName   |  0.00000 |  0.00000 | i  |  3,17, 1 |||
100 |          | noName   |  0.00000 |  0.00000 | i  |  4,17, 1 |||
101 |          | noName   |  0.00000 |  0.00000 | i  |  5,17, 1 |||
102 |          | noName   |  0.00000 |  0.00000 | i  |  6,17, 1 |||
103 |          | noName   |  0.00000 |  0.00000 | i  |  1,18, 1 |||
104 |          | noName   |  0.00000 |  0.00000 | i  |  2,18, 1 |||
105 |          | noName   |  0.00000 |  0.00000 | i  |  3,18, 1 |||
106 |          | noName   |  0.00000 |  0.00000 | i  |  4,18, 1 |||
107 |          | noName   |  0.00000 |  0.00000 | i  |  5,18, 1 |||
108 |          | noName   |  0.00000 |  0.00000 | i  |  6,18, 1 |||
109 |          | noName   |  0.00000 |  0.00000 | i  |  1,19, 1 |||
110 |          | noName   |  0.00000 |  0.00000 | i  |  2,19, 1 |||
111 |          | noName   |  0.00000 |  0.00000 | i  |  3,19, 1 |||
112 |          | noName   |  0.00000 |  0.00000 | i  |  4,19, 1 |||
113 |          | noName   |  0.00000 |  0.00000 | i  |  5,19, 1 |||
114 |          | noName   |  0.00000 |  0.00000 | i  |  6,19, 1 |||
115 |          | noName   |  0.00000 |  0.00000 | i  |  1,20, 1 |||
116 |          | noName   |  0.00000 |  0.00000 | i  |  2,20, 1 |||
117 |          | noName   |  0.00000 |  0.00000 | i  |  3,20, 1 |||
118 |          | noName   |  0.00000 |  0.00000 | i  |  4,20, 1 |||
119 |          | noName   |  0.00000 |  0.00000 | i  |  5,20, 1 |||
120 |          | noName   |  0.00000 |  0.00000 | i  |  6,20, 1 |||
121 |          | noName   |  0.00000 |  0.00000 | i  |  1,21, 1 |||
122 |          | noName   |  0.00000 |  0.00000 | i  |  2,21, 1 |||
123 |          | noName   |  0.00000 |  0.00000 | i  |  3,21, 1 |||
124 |          | noName   |  0.00000 |  0.00000 | i  |  4,21, 1 |||
125 |          | noName   |  0.00000 |  0.00000 | i  |  5,21, 1 |||
126 |          | noName   |  0.00000 |  0.00000 | i  |  6,21, 1 |||
127 |          | noName   |  0.00000 |  0.00000 | i  |  1,22, 1 |||
128 |          | noName   |  0.00000 |  0.00000 | i  |  2,22, 1 |||
129 |          | noName   |  0.00000 |  0.00000 | i  |  3,22, 1 |||
130 |          | noName   |  0.00000 |  0.00000 | i  |  4,22, 1 |||
131 |          | noName   |  0.00000 |  0.00000 | i  |  5,22, 1 |||
132 |          | noName   |  0.00000 |  0.00000 | i  |  6,22, 1 |||
133 |          | noName   |  0.00000 |  0.00000 | i  |  1,23, 1 |||
134 |          | noName   |  0.00000 |  0.00000 | i  |  2,23, 1 |||
135 |          | noName   |  0.00000 |  0.00000 | i  |  3,23, 1 |||
136 |          | noName   |  0.00000 |  0.00000 | i  |  4,23, 1 |||
137 |          | noName   |  0.00000 |  0.00000 | i  |  5,23, 1 |||
138 |          | noName   |  0.00000 |  0.00000 | i  |  6,23, 1 |||
139 |          | noName   |  0.00000 |  0.00000 | i  |  1,24, 1 |||
140 |          | noName   |  0.00000 |  0.00000 | i  |  2,24, 1 |||
141 |          | noName   |  0.00000 |  0.00000 | i  |  3,24, 1 |||
142 |          | noName   |  0.00000 |  0.00000 | i  |  4,24, 1 |||
143 |          | noName   |  0.00000 |  0.00000 | i  |  5,24, 1 |||
144 |          | noName   |  0.00000 |  0.00000 | i  |  6,24, 1 |||
145 |          | noName   |  0.00000 |  0.00000 | i  |  1,25, 1 |||
146 |          | noName   |  0.00000 |  0.00000 | i  |  2,25, 1 |||
147 |          | noName   |  0.00000 |  0.00000 | i  |  3,25, 1 |||
148 |          | noName   |  0.00000 |  0.00000 | i  |  4,25, 1 |||
149 |          | noName   |  0.00000 |  0.00000 | i  |  5,25, 1 |||
150 |          | noName   |  0.00000 |  0.00000 | i  |  6,25, 1 |||
151 |          | noName   |  0.00000 |  0.00000 | i  |  1,26, 1 |||
152 |          | noName   |  0.00000 |  0.00000 | i  |  2,26, 1 |||
153 |          | noName   |  0.00000 |  0.00000 | i  |  3,26, 1 |||
154 |          | noName   |  0.00000 |  0.00000 | i  |  4,26, 1 |||
155 |          | noName   |  0.00000 |  0.00000 | i  |  5,26, 1 |||
156 |          | noName   |  0.00000 |  0.00000 | i  |  6,26, 1 |||
157 |          | noName   |  0.00000 |  0.00000 | i  |  1,27, 1 |||
158 |          | noName   |  0.00000 |  0.00000 | i  |  2,27, 1 |||
159 |          | noName   |  0.00000 |  0.00000 | i  |  3,27, 1 |||
160 |          | noName   |  0.00000 |  0.00000 | i  |  4,27, 1 |||
161 |          | noName   |  0.00000 |  0.00000 | i  |  5,27, 1 |||
162 |          | noName   |  0.00000 |  0.00000 | i  |  6,27, 1 |||
163 |          | noName   |  0.00000 |  0.00000 | h  | 11, 1, 1 |||
164 |          | noName   |  0.00000 |  0.00000 | h  | 12, 1, 1 |||
165 |          | noName   |  0.00000 |  0.00000 | h  | 11, 2, 1 |||
166 |          | noName   |  0.00000 |  0.00000 | h  | 12, 2, 1 |||
167 |          | noName   |  0.00000 |  0.00000 | h  | 11, 3, 1 |||
168 |          | noName   |  0.00000 |  0.00000 | h  | 12, 3, 1 |||
169 |          | noName   |  0.00000 |  0.00000 | h  | 11, 4, 1 |||
170 |          | noName   |  0.00000 |  0.00000 | h  | 12, 4, 1 |||
171 |          | noName   |  0.00000 |  0.00000 | h  | 11, 5, 1 |||
172 |          | noName   |  0.00000 |  0.00000 | h  | 12, 5, 1 |||
173 |          | noName   |  0.00000 |  0.00000 | h  | 11, 6, 1 |||
174 |          | noName   |  0.00000 |  0.00000 | h  | 12, 6, 1 |||
175 |          | noName   |  0.00000 |  0.00000 | h  | 11, 7, 1 |||
176 |          | noName   |  0.00000 |  0.00000 | h  | 12, 7, 1 |||
177 |          | noName   |  0.00000 |  0.00000 | h  | 11, 8, 1 |||
178 |          | noName   |  0.00000 |  0.00000 | h  | 12, 8, 1 |||
179 |          | noName   |  0.00000 |  0.00000 | h  | 11, 9, 1 |||
180 |          | noName   |  0.00000 |  0.00000 | h  | 12, 9, 1 |||
181 |          | noName   |  0.00000 |  0.00000 | h  | 11,10, 1 |||
182 |          | noName   |  0.00000 |  0.00000 | h  | 12,10, 1 |||
183 |          | noName   |  0.00000 |  0.00000 | h  | 11,11, 1 |||
184 |          | noName   |  0.00000 |  0.00000 | h  | 12,11, 1 |||
185 |          | noName   |  0.00000 |  0.00000 | h  | 11,12, 1 |||
186 |          | noName   |  0.00000 |  0.00000 | h  | 12,12, 1 |||
187 |          | noName   |  0.00000 |  0.00000 | h  | 11,13, 1 |||
188 |          | noName   |  0.00000 |  0.00000 | h  | 12,13, 1 |||
189 |          | noName   |  0.00000 |  0.00000 | h  | 11,14, 1 |||
190 |          | noName   |  0.00000 |  0.00000 | h  | 12,14, 1 |||
191 |          | noName   |  0.00000 |  0.00000 | h  | 11,15, 1 |||
192 |          | noName   |  0.00000 |  0.00000 | h  | 12,15, 1 |||
193 |          | noName   |  0.00000 |  0.00000 | h  | 11,16, 1 |||
194 |          | noName   |  0.00000 |  0.00000 | h  | 12,16, 1 |||
195 |          | noName   |  0.00000 |  0.00000 | h  | 11,17, 1 |||
196 |          | noName   |  0.00000 |  0.00000 | h  | 12,17, 1 |||
197 |          | noName   |  0.00000 |  0.00000 | h  | 11,18, 1 |||
198 |          | noName   |  0.00000 |  0.00000 | h  | 12,18, 1 |||
199 |          | noName   |  0.00000 |  0.00000 | h  | 11,19, 1 |||
200 |          | noName   |  0.00000 |  0.00000 | h  | 12,19, 1 |||
201 |          | noName   |  0.00000 |  0.00000 | h  | 11,20, 1 |||
202 |          | noName   |  0.00000 |  0.00000 | h  | 12,20, 1 |||
203 |          | noName   |  0.00000 |  0.00000 | h  | 11,21, 1 |||
204 |          | noName   |  0.00000 |  0.00000 | h  | 12,21, 1 |||
205 |          | noName   |  0.00000 |  0.00000 | h  | 11,22, 1 |||
206 |          | noName   |  0.00000 |  0.00000 | h  | 12,22, 1 |||
207 |          | noName   |  0.00000 |  0.00000 | h  | 11,23, 1 |||
208 |          | noName   |  0.00000 |  0.00000 | h  | 12,23, 1 |||
209 |          | noName   |  0.00000 |  0.00000 | h  | 11,24, 1 |||
210 |          | noName   |  0.00000 |  0.00000 | h  | 12,24, 1 |||
211 |          | noName   |  0.00000 |  0.00000 | h  | 11,25, 1 |||
212 |          | noName   |  0.00000 |  0.00000 | h  | 12,25, 1 |||
213 |          | noName   |  0.00000 |  0.00000 | h  | 11,26, 1 |||
214 |          | noName   |  0.00000 |  0.00000 | h  | 12,26, 1 |||
215 |          | noName   |  0.00000 |  0.00000 | h  | 11,27, 1 |||
216 |          | noName   |  0.00000 |  0.00000 | h  | 12,27, 1 |||
217 |          | noName   |  0.00000 |  0.00000 | o  | 17, 1, 1 |||
218 |          | noName   |  0.00000 |  0.00000 | o  | 17, 2, 1 |||
----|----------|----------|----------|----------|----|----------|----------|----------|-------


connection definition section :

target | site | source:weight
-------|------|----------------------------------------------------------------------------------------------------------------
   163 |      | 162: 0.00000, 161: 0.00000, 160: 0.00000, 159: 0.00000, 158: 0.00000, 157: 0.00000, 156: 0.00000, 155: 0.00000,
                154: 0.00000, 153: 0.00000, 152: 0.00000, 151: 0.00000, 150: 0.00000, 149: 0.00000, 148: 0.00000, 147: 0.00000,
                146: 0.00000, 145: 0.00000, 144: 0.00000, 143: 0.00000, 142: 0.00000, 141: 0.00000, 140: 0.00000, 139: 0.00000,
                138: 0.00000, 137: 0.00000, 136: 0.00000, 135: 0.00000, 134: 0.00000, 133: 0.00000, 132: 0.00000, 131: 0.00000,
                130: 0.00000, 129: 0.00000, 128: 0.00000, 127: 0.00000, 126: 0.00000, 125: 0.00000, 124: 0.00000, 123: 0.00000,
                122: 0.00000, 121: 0.00000, 120: 0.00000, 119: 0.00000, 118: 0.00000, 117: 0.00000, 116: 0.00000, 115: 0.00000,
                114: 0.00000, 113: 0.00000, 112: 0.00000, 111: 0.00000, 110: 0.00000, 109: 0.00000, 108: 0.00000, 107: 0.00000,
                106: 0.00000, 105: 0.00000, 104: 0.00000, 103: 0.00000, 102: 0.00000, 101: 0.00000, 100: 0.00000,  99: 0.00000,
                 98: 0.00000,  97: 0.00000,  96: 0.00000,  95: 0.00000,  94: 0.00000,  93: 0.00000,  92: 0.00000,  91: 0.00000,
                 90: 0.00000,  89: 0.00000,  88: 0.00000,  87: 0.00000,  86: 0.00000,  85: 0.00000,  84: 0.00000,  83: 0.00000,
                 82: 0.00000,  81: 0.00000,  80: 0.00000,  79: 0.00000,  78: 0.00000,  77: 0.00000,  76: 0.00000,  75: 0.00000,
                 74: 0.00000,  73: 0.00000,  72: 0.00000,  71: 0.00000,  70: 0.00000,  69: 0.00000,  68: 0.00000,  67: 0.00000,
                 66: 0.00000,  65: 0.00000,  64: 0.00000,  63: 0.00000,  62: 0.00000,  61: 0.00000,  60: 0.00000,  59: 0.00000,
                 58: 0.00000,  57: 0.00000,  56: 0.00000,  55: 0.00000,  54: 0.00000,  53: 0.00000,  52: 0.00000,  51: 0.00000,
                 50: 0.00000,  49: 0.00000,  48: 0.00000,  47: 0.00000,  46: 0.00000,  45: 0.00000,  44: 0.00000,  43: 0.00000,
                 42: 0.00000,  41: 0.00000,  40: 0.00000,  39: 0.00000,  38: 0.00000,  37: 0.00000,  36: 0.00000,  35: 0.00000,
                 34: 0.00000,  33: 0.00000,  32: 0.00000,  31: 0.00000,  30: 0.00000,  29: 0.00000,  28: 0.00000,  27: 0.00000,
                 26: 0.00000,  25: 0.00000,  24: 0.00000,  23: 0.00000,  22: 0.00000,  21: 0.00000,  20: 0.00000,  19: 0.00000,
                 18: 0.00000,  17: 0.00000,  16: 0.00000,  15: 0.00000,  14: 0.00000,  13: 0.00000,  12: 0.00000,  11: 0.00000,
                 10: 0.00000,   9: 0.00000,   8: 0.00000,   7: 0.00000,   6: 0.00000,   5: 0.00000,   4: 0.00000,   3: 0.00000,
                  2: 0.00000,   1: 0.00000
   164 |      | 162: 0.00000, 161: 0.00000, 160: 0.00000, 159: 0.00000, 158: 0.00000, 157: 0.00000, 156: 0.00000, 155: 0.00000,
                154: 0.00000, 153: 0.00000, 152: 0.00000, 151: 0.00000, 150: 0.00000, 149: 0.00000, 148: 0.00000, 147: 0.00000,
                146: 0.00000, 145: 0.00000, 144: 0.00000, 143: 0.00000, 142: 0.00000, 141: 0.00000, 140: 0.00000, 139: 0.00000,
                138: 0.00000, 137: 0.00000, 136: 0.00000, 135: 0.00000, 134: 0.00000, 133: 0.00000, 132: 0.00000, 131: 0.00000,
                130: 0.00000, 129: 0.00000, 128: 0.00000, 127: 0.00000, 126: 0.00000, 125: 0.00000, 124: 0.00000, 123: 0.00000,
                122: 0.00000, 121: 0.00000, 120: 0.00000, 119: 0.00000, 118: 0.00000, 117: 0.00000, 116: 0.00000, 115: 0.00000,
                114: 0.00000, 113: 0.00000, 112: 0.00000, 111: 0.00000, 110: 0.00000, 109: 0.00000, 108: 0.00000, 107: 0.00000,
                106: 0.00000, 105: 0.00000, 104: 0.00000, 103: 0.00000, 102: 0.00000, 101: 0.00000, 100: 0.00000,  99: 0.00000,
                 98: 0.00000,  97: 0.00000,  96: 0.00000,  95: 0.00000,  94: 0.00000,  93: 0.00000,  92: 0.00000,  91: 0.00000,
                 90: 0.00000,  89: 0.00000,  88: 0.00000,  87: 0.00000,  86: 0.00000,  85: 0.00000,  84: 0.00000,  83: 0.00000,
                 82: 0.00000,  81: 0.00000,  80: 0.00000,  79: 0.00000,  78: 0.00000,  77: 0.00000,  76: 0.00000,  75: 0.00000,
                 74: 0.00000,  73: 0.00000,  72: 0.00000,  71: 0.00000,  70: 0.00000,  69: 0.00000,  68: 0.00000,  67: 0.00000,
                 66: 0.00000,  65: 0.00000,  64: 0.00000,  63: 0.00000,  62: 0.00000,  61: 0.00000,  60: 0.00000,  59: 0.00000,
                 58: 0.00000,  57: 0.00000,  56: 0.00000,  55: 0.00000,  54: 0.00000,  53: 0.00000,  52: 0.00000,  51: 0.00000,
                 50: 0.00000,  49: 0.00000,  48: 0.00000,  47: 0.00000,  46: 0.00000,  45: 0.00000,  44: 0.00000,  43: 0.00000,
                 42: 0.00000,  41: 0.00000,  40: 0.00000,  39: 0.00000,  38: 0.00000,  37: 0.00000,  36: 0.00000,  35: 0.00000,
                 34: 0.00000,  33: 0.00000,  32: 0.00000,  31: 0.00000,  30: 0.00000,  29: 0.00000,  28: 0.00000,  27: 0.00000,
                 26: 0.00000,  25: 0.00000,  24: 0.00000,  23: 0.00000,  22: 0.00000,  21: 0.00000,  20: 0.00000,  19: 0.00000,
                 18: 0.00000,  17: 0.00000,  16: 0.00000,  15: 0.00000,  14: 0.00000,  13: 0.00000,  12: 0.00000,  11: 0.00000,
                 10: 0.00000,   9: 0.00000,   8: 0.00000,   7: 0.00000,   6: 0.00000,   5: 0.00000,   4: 0.00000,   3: 0.00000,
                  2: 0.00000,   1: 0.00000
   165 |      | 162: 0.00000, 161: 0.00000, 160: 0.00000, 159: 0.00000, 158: 0.00000, 157: 0.00000, 156: 0.00000, 155: 0.00000,
                154: 0.00000, 153: 0.00000, 152: 0.00000, 151: 0.00000, 150: 0.00000, 149: 0.00000, 148: 0.00000, 147: 0.00000,
                146: 0.00000, 145: 0.00000, 144: 0.00000, 143: 0.00000, 142: 0.00000, 141: 0.00000, 140: 0.00000, 139: 0.00000,
                138: 0.00000, 137: 0.00000, 136: 0.00000, 135: 0.00000, 134: 0.00000, 133: 0.00000, 132: 0.00000, 131: 0.00000,
                130: 0.00000, 129: 0.00000, 128: 0.00000, 127: 0.00000, 126: 0.00000, 125: 0.00000, 124: 0.00000, 123: 0.00000,
                122: 0.00000, 121: 0.00000, 120: 0.00000, 119: 0.00000, 118: 0.00000, 117: 0.00000, 116: 0.00000, 115: 0.00000,
                114: 0.00000, 113: 0.00000, 112: 0.00000, 111: 0.00000, 110: 0.00000, 109: 0.00000, 108: 0.00000, 107: 0.00000,
                106: 0.00000, 105: 0.00000, 104: 0.00000, 103: 0.00000, 102: 0.00000, 101: 0.00000, 100: 0.00000,  99: 0.00000,
                 98: 0.00000,  97: 0.00000,  96: 0.00000,  95: 0.00000,  94: 0.00000,  93: 0.00000,  92: 0.00000,  91: 0.00000,
                 90: 0.00000,  89: 0.00000,  88: 0.00000,  87: 0.00000,  86: 0.00000,  85: 0.00000,  84: 0.00000,  83: 0.00000,
                 82: 0.00000,  81: 0.00000,  80: 0.00000,  79: 0.00000,  78: 0.00000,  77: 0.00000,  76: 0.00000,  75: 0.00000,
                 74: 0.00000,  73: 0.00000,  72: 0.00000,  71: 0.00000,  70: 0.00000,  69: 0.00000,  68: 0.00000,  67: 0.00000,
                 66: 0.00000,  65: 0.00000,  64: 0.00000,  63: 0.00000,  62: 0.00000,  61: 0.00000,  60: 0.00000,  59: 0.00000,
                 58: 0.00000,  57: 0.00000,  56: 0.00000,  55: 0.00000,  54: 0.00000,  53: 0.00000,  52: 0.00000,  51: 0.00000,
                 50: 0.00000,  49: 0.00000,  48: 0.00000,  47: 0.00000,  46: 0.00000,  45: 0.00000,  44: 0.00000,  43: 0.00000,
                 42: 0.00000,  41: 0.00000,  40: 0.00000,  39: 0.00000,  38: 0.00000,  37: 0.00000,  36: 0.00000,  35: 0.00000,
                 34: 0.00000,  33: 0.00000,  32: 0.00000,  31: 0.00000,  30: 0.00000,  29: 0.00000,  28: 0.00000,  27: 0.00000,
                 26: 0.00000,  25: 0.00000,  24: 0.00000,  23: 0.00000,  22: 0.00000,  21: 0.00000,  20: 0.00000,  19: 0.00000,
                 18: 0.00000,  17: 0.00000,  16: 0.00000,  15: 0.00000,  14: 0.00000,  13: 0.00000,  12: 0.00000,  11: 0.00000,
                 10: 0.00000,   9: 0.00000,   8: 0.00000,   7: 0.00000,   6: 0.00000,   5: 0.00000,   4: 0.00000,   3: 0.00000,
                  2: 0.00000,   1: 0.00000
   166 |      | 162: 0.00000, 161: 0.00000, 160: 0.00000, 159: 0.00000, 158: 0.00000, 157: 0.00000, 156: 0.00000, 155: 0.00000,
                154: 0.00000, 153: 0.00000, 152: 0.00000, 151: 0.00000, 150: 0.00000, 149: 0.00000, 148: 0.00000, 147: 0.00000,
                146: 0.00000, 145: 0.00000, 144: 0.00000, 143: 0.00000, 142: 0.00000, 141: 0.00000, 140: 0.00000, 139: 0.00000,
                138: 0.00000, 137: 0.00000, 136: 0.00000, 135: 0.00000, 134: 0.00000, 133: 0.00000, 132: 0.00000, 131: 0.00000,
                130: 0.00000, 129: 0.00000, 128: 0.00000, 127: 0.00000, 126: 0.00000, 125: 0.00000, 124: 0.00000, 123: 0.00000,
                122: 0.00000, 121: 0.00000, 120: 0.00000, 119: 0.00000, 118: 0.00000, 117: 0.00000, 116: 0.00000, 115: 0.00000,
                114: 0.00000, 113: 0.00000, 112: 0.00000, 111: 0.00000, 110: 0.00000, 109: 0.00000, 108: 0.00000, 107: 0.00000,
                106: 0.00000, 105: 0.00000, 104: 0.00000, 103: 0.00000, 102: 0.00000, 101: 0.00000, 100: 0.00000,  99: 0.00000,
                 98: 0.00000,  97: 0.00000,  96: 0.00000,  95: 0.00000,  94: 0.00000,  93: 0.00000,  92: 0.00000,  91: 0.00000,
                 90: 0.00000,  89: 0.00000,  88: 0.00000,  87: 0.00000,  86: 0.00000,  85: 0.00000,  84: 0.00000,  83: 0.00000,
                 82: 0.00000,  81: 0.00000,  80: 0.00000,  79: 0.00000,  78: 0.00000,  77: 0.00000,  76: 0.00000,  75: 0.00000,
                 74: 0.00000,  73: 0.00000,  72: 0.00000,  71: 0.00000,  70: 0.00000,  69: 0.00000,  68: 0.00000,  67: 0.00000,
                 66: 0.00000,  65: 0.00000,  64: 0.00000,  63: 0.00000,  62: 0.00000,  61: 0.00000,  60: 0.00000,  59: 0.00000,
                 58: 0.00000,  57: 0.00000,  56: 0.00000,  55: 0.00000,  54: 0.00000,  53: 0.00000,  52: 0.00000,  51: 0.00000,
                 50: 0.00000,  49: 0.00000,  48: 0.00000,  47: 0.00000,  46: 0.00000,  45: 0.00000,  44: 0.00000,  43: 0.00000,
                 42: 0.00000,  41: 0.00000,  40: 0.00000,  39: 0.00000,  38: 0.00000,  37: 0.00000,  36: 0.00000,  35: 0.00000,
                 34: 0.00000,  33: 0.00000,  32: 0.00000,  31: 0.00000,  30: 0.00000,  29: 0.00000,  28: 0.00000,  27: 0.00000,
                 26: 0.00000,  25: 0.00000,  24: 0.00000,  23: 0.00000,  22: 0.00000,  21: 0.00000,  20: 0.00000,  19: 0.00000,
                 18: 0.00000,  17: 0.00000,  16: 0.00000,  15: 0.00000,  14: 0.00000,  13: 0.00000,  12: 0.00000,  11: 0.00000,
                 10: 0.00000,   9: 0.00000,   8: 0.00000,   7: 0.00000,   6: 0.00000,   5: 0.00000,   4: 0.00000,   3: 0.00000,
                  2: 0.00000,   1: 0.00000
   167 |      | 162: 0.00000, 161: 0.00000, 160: 0.00000, 159: 0.00000, 158: 0.00000, 157: 0.00000, 156: 0.00000, 155: 0.00000,
                154: 0.00000, 153: 0.00000, 152: 0.00000, 151: 0.00000, 150: 0.00000, 149: 0.00000, 148: 0.00000, 147: 0.00000,
                146: 0.00000, 145: 0.00000, 144: 0.00000, 143: 0.00000, 142: 0.00000, 141: 0.00000, 140: 0.00000, 139: 0.00000,
                138: 0.00000, 137: 0.00000, 136: 0.00000, 135: 0.00000, 134: 0.00000, 133: 0.00000, 132: 0.00000, 131: 0.00000,
                130: 0.00000, 129: 0.00000, 128: 0.00000, 127: 0.00000, 126: 0.00000, 125: 0.00000, 124: 0.00000, 123: 0.00000,
                122: 0.00000, 121: 0.00000, 120: 0.00000, 119: 0.00000, 118: 0.00000, 117: 0.00000, 116: 0.00000, 115: 0.00000,
                114: 0.00000, 113: 0.00000, 112: 0.00000, 111: 0.00000, 110: 0.00000, 109: 0.00000, 108: 0.00000, 107: 0.00000,
                106: 0.00000, 105: 0.00000, 104: 0.00000, 103: 0.00000, 102: 0.00000, 101: 0.00000, 100: 0.00000,  99: 0.00000,
                 98: 0.00000,  97: 0.00000,  96: 0.00000,  95: 0.00000,  94: 0.00000,  93: 0.00000,  92: 0.00000,  91: 0.00000,
                 90: 0.00000,  89: 0.00000,  88: 0.00000,  87: 0.00000,  86: 0.00000,  85: 0.00000,  84: 0.00000,  83: 0.00000,
                 82: 0.00000,  81: 0.00000,  80: 0.00000,  79: 0.00000,  78: 0.00000,  77: 0.00000,  76: 0.00000,  75: 0.00000,
                 74: 0.00000,  73: 0.00000,  72: 0.00000,  71: 0.00000,  70: 0.00000,  69: 0.00000,  68: 0.00000,  67: 0.00000,
                 66: 0.00000,  65: 0.00000,  64: 0.00000,  63: 0.00000,  62: 0.00000,  61: 0.00000,  60: 0.00000,  59: 0.00000,
                 58: 0.00000,  57: 0.00000,  56: 0.00000,  55: 0.00000,  54: 0.00000,  53: 0.00000,  52: 0.00000,  51: 0.00000,
                 50: 0.00000,  49: 0.00000,  48: 0.00000,  47: 0.00000,  46: 0.00000,  45: 0.00000,  44: 0.00000,  43: 0.00000,
                 42: 0.00000,  41: 0.00000,  40: 0.00000,  39: 0.00000,  38: 0.00000,  37: 0.00000,  36: 0.00000,  35: 0.00000,
                 34: 0.00000,  33: 0.00000,  32: 0.00000,  31: 0.00000,  30: 0.00000,  29: 0.00000,  28: 0.00000,  27: 0.00000,
                 26: 0.00000,  25: 0.00000,  24: 0.00000,  23: 0.00000,  22: 0.00000,  21: 0.00000,  20: 0.00000,  19: 0.00000,
                 18: 0.00000,  17: 0.00000,  16: 0.00000,  15: 0.00000,  14: 0.00000,  13: 0.00000,  12: 0.00000,  11: 0.00000,
                 10: 0.00000,   9: 0.00000,   8: 0.00000,   7: 0.00000,   6: 0.00000,   5: 0.00000,   4: 0.00000,   3: 0.00000,
                  2: 0.00000,   1: 0.00000
   168 |      | 162: 0.00000, 161: 0.00000, 160: 0.00000, 159: 0.00000, 158: 0.00000, 157: 0.00000, 156: 0.00000, 155: 0.00000,
                154: 0.00000, 153: 0.00000, 152: 0.00000, 151: 0.00000, 150: 0.00000, 149: 0.00000, 148: 0.00000, 147: 0.00000,
                146: 0.00000, 145: 0.00000, 144: 0.00000, 143: 0.00000, 142: 0.00000, 141: 0.00000, 140: 0.00000, 139: 0.00000,
                138: 0.00000, 137: 0.00000, 136: 0.00000, 135: 0.00000, 134: 0.00000, 133: 0.00000, 132: 0.00000, 131: 0.00000,
                130: 0.00000, 129: 0.00000, 128: 0.00000, 127: 0.00000, 126: 0.00000, 125: 0.00000, 124: 0.00000, 123: 0.00000,
                122: 0.00000, 121: 0.00000, 120: 0.00000, 119: 0.00000, 118: 0.00000, 117: 0.00000, 116: 0.00000, 115: 0.00000,
                114: 0.00000, 113: 0.00000, 112: 0.00000, 111: 0.00000, 110: 0.00000, 109: 0.00000, 108: 0.00000, 107: 0.00000,
                106: 0.00000, 105: 0.00000, 104: 0.00000, 103: 0.00000, 102: 0.00000, 101: 0.00000, 100: 0.00000,  99: 0.00000,
                 98: 0.00000,  97: 0.00000,  96: 0.00000,  95: 0.00000,  94: 0.00000,  93: 0.00000,  92: 0.00000,  91: 0.00000,
                 90: 0.00000,  89: 0.00000,  88: 0.00000,  87: 0.00000,  86: 0.00000,  85: 0.00000,  84: 0.00000,  83: 0.00000,
                 82: 0.00000,  81: 0.00000,  80: 0.00000,  79: 0.00000,  78: 0.00000,  77: 0.00000,  76: 0.00000,  75: 0.00000,
                 74: 0.00000,  73: 0.00000,  72: 0.00000,  71: 0.00000,  70: 0.00000,  69: 0.00000,  68: 0.00000,  67: 0.00000,
                 66: 0.00000,  65: 0.00000,  64: 0.00000,  63: 0.00000,  62: 0.00000,  61: 0.00000,  60: 0.00000,  59: 0.00000,
                 58: 0.00000,  57: 0.00000,  56: 0.00000,  55: 0.00000,  54: 0.00000,  53: 0.00000,  52: 0.00000,  51: 0.00000,
                 50: 0.00000,  49: 0.00000,  48: 0.00000,  47: 0.00000,  46: 0.00000,  45: 0.00000,  44: 0.00000,  43: 0.00000,
                 42: 0.00000,  41: 0.00000,  40: 0.00000,  39: 0.00000,  38: 0.00000,  37: 0.00000,  36: 0.00000,  35: 0.00000,
                 34: 0.00000,  33: 0.00000,  32: 0.00000,  31: 0.00000,  30: 0.00000,  29: 0.00000,  28: 0.00000,  27: 0.00000,
                 26: 0.00000,  25: 0.00000,  24: 0.00000,  23: 0.00000,  22: 0.00000,  21: 0.00000,  20: 0.00000,  19: 0.00000,
                 18: 0.00000,  17: 0.00000,  16: 0.00000,  15: 0.00000,  14: 0.00000,  13: 0.00000,  12: 0.00000,  11: 0.00000,
                 10: 0.00000,   9: 0.00000,   8: 0.00000,   7: 0.00000,   6: 0.00000,   5: 0.00000,   4: 0.00000,   3: 0.00000,
                  2: 0.00000,   1: 0.00000
   169 |      | 162: 0.00000, 161: 0.00000, 160: 0.00000, 159: 0.00000, 158: 0.00000, 157: 0.00000, 156: 0.00000, 155: 0.00000,
                154: 0.00000, 153: 0.00000, 152: 0.00000, 151: 0.00000, 150: 0.00000, 149: 0.00000, 148: 0.00000, 147: 0.00000,
                146: 0.00000, 145: 0.00000, 144: 0.00000, 143: 0.00000, 142: 0.00000, 141: 0.00000, 140: 0.00000, 139: 0.00000,
                138: 0.00000, 137: 0.00000, 136: 0.00000, 135: 0.00000, 134: 0.00000, 133: 0.00000, 132: 0.00000, 131: 0.00000,
                130: 0.00000, 129: 0.00000, 128: 0.00000, 127: 0.00000, 126: 0.00000, 125: 0.00000, 124: 0.00000, 123: 0.00000,
                122: 0.00000, 121: 0.00000, 120: 0.00000, 119: 0.00000, 118: 0.00000, 117: 0.00000, 116: 0.00000, 115: 0.00000,
                114: 0.00000, 113: 0.00000, 112: 0.00000, 111: 0.00000, 110: 0.00000, 109: 0.00000, 108: 0.00000, 107: 0.00000,
                106: 0.00000, 105: 0.00000, 104: 0.00000, 103: 0.00000, 102: 0.00000, 101: 0.00000, 100: 0.00000,  99: 0.00000,
                 98: 0.00000,  97: 0.00000,  96: 0.00000,  95: 0.00000,  94: 0.00000,  93: 0.00000,  92: 0.00000,  91: 0.00000,
                 90: 0.00000,  89: 0.00000,  88: 0.00000,  87: 0.00000,  86: 0.00000,  85: 0.00000,  84: 0.00000,  83: 0.00000,
                 82: 0.00000,  81: 0.00000,  80: 0.00000,  79: 0.00000,  78: 0.00000,  77: 0.00000,  76: 0.00000,  75: 0.00000,
                 74: 0.00000,  73: 0.00000,  72: 0.00000,  71: 0.00000,  70: 0.00000,  69: 0.00000,  68: 0.00000,  67: 0.00000,
                 66: 0.00000,  65: 0.00000,  64: 0.00000,  63: 0.00000,  62: 0.00000,  61: 0.00000,  60: 0.00000,  59: 0.00000,
                 58: 0.00000,  57: 0.00000,  56: 0.00000,  55: 0.00000,  54: 0.00000,  53: 0.00000,  52: 0.00000,  51: 0.00000,
                 50: 0.00000,  49: 0.00000,  48: 0.00000,  47: 0.00000,  46: 0.00000,  45: 0.00000,  44: 0.00000,  43: 0.00000,
                 42: 0.00000,  41: 0.00000,  40: 0.00000,  39: 0.00000,  38: 0.00000,  37: 0.00000,  36: 0.00000,  35: 0.00000,
                 34: 0.00000,  33: 0.00000,  32: 0.00000,  31: 0.00000,  30: 0.00000,  29: 0.00000,  28: 0.00000,  27: 0.00000,
                 26: 0.00000,  25: 0.00000,  24: 0.00000,  23: 0.00000,  22: 0.00000,  21: 0.00000,  20: 0.00000,  19: 0.00000,
                 18: 0.00000,  17: 0.00000,  16: 0.00000,  15: 0.00000,  14: 0.00000,  13: 0.00000,  12: 0.00000,  11: 0.00000,
                 10: 0.00000,   9: 0.00000,   8: 0.00000,   7: 0.00000,   6: 0.00000,   5: 0.00000,   4: 0.00000,   3: 0.00000,
                  2: 0.00000,   1: 0.00000
   170 |      | 162: 0.00000, 161: 0.00000, 160: 0.00000, 159: 0.00000, 158: 0.00000, 157: 0.00000, 156: 0.00000, 155: 0.00000,
                154: 0.00000, 153: 0.00000, 152: 0.00000, 151: 0.00000, 150: 0.00000, 149: 0.00000, 148: 0.00000, 147: 0.00000,
                146: 0.00000, 145: 0.00000, 144: 0.00000, 143: 0.00000, 142: 0.00000, 141: 0.00000, 140: 0.00000, 139: 0.00000,
                138: 0.00000, 137: 0.00000, 136: 0.00000, 135: 0.00000, 134: 0.00000, 133: 0.00000, 132: 0.00000, 131: 0.00000,
                130: 0.00000, 129: 0.00000, 128: 0.00000, 127: 0.00000, 126: 0.00000, 125: 0.00000, 124: 0.00000, 123: 0.00000,
                122: 0.00000, 121: 0.00000, 120: 0.00000, 119: 0.00000, 118: 0.00000, 117: 0.00000, 116: 0.00000, 115: 0.00000,
                114: 0.00000, 113: 0.00000, 112: 0.00000, 111: 0.00000, 110: 0.00000, 109: 0.00000, 108: 0.00000, 107: 0.00000,
                106: 0.00000, 105: 0.00000, 104: 0.00000, 103: 0.00000, 102: 0.00000, 101: 0.00000, 100: 0.00000,  99: 0.00000,
                 98: 0.00000,  97: 0.00000,  96: 0.00000,  95: 0.00000,  94: 0.00000,  93: 0.00000,  92: 0.00000,  91: 0.00000,
                 90: 0.00000,  89: 0.00000,  88: 0.00000,  87: 0.00000,  86: 0.00000,  85: 0.00000,  84: 0.00000,  83: 0.00000,
                 82: 0.00000,  81: 0.00000,  80: 0.00000,  79: 0.00000,  78: 0.00000,  77: 0.00000,  76: 0.00000,  75: 0.00000,
                 74: 0.00000,  73: 0.00000,  72: 0.00000,  71: 0.00000,  70: 0.00000,  69: 0.00000,  68: 0.00000,  67: 0.00000,
                 66: 0.00000,  65: 0.00000,  64: 0.00000,  63: 0.00000,  62: 0.00000,  61: 0.00000,  60: 0.00000,  59: 0.00000,
                 58: 0.00000,  57: 0.00000,  56: 0.00000,  55: 0.00000,  54: 0.00000,  53: 0.00000,  52: 0.00000,  51: 0.00000,
                 50: 0.00000,  49: 0.00000,  48: 0.00000,  47: 0.00000,  46: 0.00000,  45: 0.00000,  44: 0.00000,  43: 0.00000,
                 42: 0.00000,  41: 0.00000,  40: 0.00000,  39: 0.00000,  38: 0.00000,  37: 0.00000,  36: 0.00000,  35: 0.00000,
                 34: 0.00000,  33: 0.00000,  32: 0.00000,  31: 0.00000,  30: 0.00000,  29: 0.00000,  28: 0.00000,  27: 0.00000,
                 26: 0.00000,  25: 0.00000,  24: 0.00000,  23: 0.00000,  22: 0.00000,  21: 0.00000,  20: 0.00000,  19: 0.00000,
                 18: 0.00000,  17: 0.00000,  16: 0.00000,  15: 0.00000,  14: 0.00000,  13: 0.00000,  12: 0.00000,  11: 0.00000,
                 10: 0.00000,   9: 0.00000,   8: 0.00000,   7: 0.00000,   6: 0.00000,   5: 0.00000,   4: 0.00000,   3: 0.00000,
                  2: 0.00000,   1: 0.00000
   171 |      | 162: 0.00000, 161: 0.00000, 160: 0.00000, 159: 0.00000, 158: 0.00000, 157: 0.00000, 156: 0.00000, 155: 0.00000,
                154: 0.00000, 153: 0.00000, 152: 0.00000, 151: 0.00000, 150: 0.00000, 149: 0.00000, 148: 0.00000, 147: 0.00000,
                146: 0.00000, 145: 0.00000, 144: 0.00000, 143: 0.00000, 142: 0.00000, 141: 0.00000, 140: 0.00000, 139: 0.00000,
                138: 0.00000, 137: 0.00000, 136: 0.00000, 135: 0.00000, 134: 0.00000, 133: 0.00000, 132: 0.00000, 131: 0.00000,
                130: 0.00000, 129: 0.00000, 128: 0.00000, 127: 0.00000, 126: 0.00000, 125: 0.00000, 124: 0.00000, 123: 0.00000,
                122: 0.00000, 121: 0.00000, 120: 0.00000, 119: 0.00000, 118: 0.00000, 117: 0.00000, 116: 0.00000, 115: 0.00000,
                114: 0.00000, 113: 0.00000, 112: 0.00000, 111: 0.00000, 110: 0.00000, 109: 0.00000, 108: 0.00000, 107: 0.00000,
                106: 0.00000, 105: 0.00000, 104: 0.00000, 103: 0.00000, 102: 0.00000, 101: 0.00000, 100: 0.00000,  99: 0.00000,
                 98: 0.00000,  97: 0.00000,  96: 0.00000,  95: 0.00000,  94: 0.00000,  93: 0.00000,  92: 0.00000,  91: 0.00000,
                 90: 0.00000,  89: 0.00000,  88: 0.00000,  87: 0.00000,  86: 0.00000,  85: 0.00000,  84: 0.00000,  83: 0.00000,
                 82: 0.00000,  81: 0.00000,  80: 0.00000,  79: 0.00000,  78: 0.00000,  77: 0.00000,  76: 0.00000,  75: 0.00000,
                 74: 0.00000,  73: 0.00000,  72: 0.00000,  71: 0.00000,  70: 0.00000,  69: 0.00000,  68: 0.00000,  67: 0.00000,
                 66: 0.00000,  65: 0.00000,  64: 0.00000,  63: 0.00000,  62: 0.00000,  61: 0.00000,  60: 0.00000,  59: 0.00000,
                 58: 0.00000,  57: 0.00000,  56: 0.00000,  55: 0.00000,  54: 0.00000,  53: 0.00000,  52: 0.00000,  51: 0.00000,
                 50: 0.00000,  49: 0.00000,  48: 0.00000,  47: 0.00000,  46: 0.00000,  45: 0.00000,  44: 0.00000,  43: 0.00000,
                 42: 0.00000,  41: 0.00000,  40: 0.00000,  39: 0.00000,  38: 0.00000,  37: 0.00000,  36: 0.00000,  35: 0.00000,
                 34: 0.00000,  33: 0.00000,  32: 0.00000,  31: 0.00000,  30: 0.00000,  29: 0.00000,  28: 0.00000,  27: 0.00000,
                 26: 0.00000,  25: 0.00000,  24: 0.00000,  23: 0.00000,  22: 0.00000,  21: 0.00000,  20: 0.00000,  19: 0.00000,
                 18: 0.00000,  17: 0.00000,  16: 0.00000,  15: 0.00000,  14: 0.00000,  13: 0.00000,  12: 0.00000,  11: 0.00000,
                 10: 0.00000,   9: 0.00000,   8: 0.00000,   7: 0.00000,   6: 0.00000,   5: 0.00000,   4: 0.00000,   3: 0.00000,
                  2: 0.00000,   1: 0.00000
   172 |      | 162: 0.00000, 161: 0.00000, 160: 0.00000, 159: 0.00000, 158: 0.00000, 157: 0.00000, 156: 0.00000, 155: 0.00000,
                154: 0.00000, 153: 0.00000, 152: 0.00000, 151: 0.00000, 150: 0.00000, 149: 0.00000, 148: 0.00000, 147: 0.00000,
                146: 0.00000, 145: 0.00000, 144: 0.00000, 143: 0.00000, 142: 0.00000, 141: 0.00000, 140: 0.00000, 139: 0.00000,
                138: 0.00000, 137: 0.00000, 136: 0.00000, 135: 0.00000, 134: 0.00000, 133: 0.00000, 132: 0.00000, 131: 0.00000,
                130: 0.00000, 129: 0.00000, 128: 0.00000, 127: 0.00000, 126: 0.00000, 125: 0.00000, 124: 0.00000, 123: 0.00000,
                122: 0.00000, 121: 0.00000, 120: 0.00000, 119: 0.00000, 118: 0.00000, 117: 0.00000, 116: 0.00000, 115: 0.00000,
                114: 0.00000, 113: 0.00000, 112: 0.00000, 111: 0.00000, 110: 0.00000, 109: 0.00000, 108: 0.00000, 107: 0.00000,
                106: 0.00000, 105: 0.00000, 104: 0.00000, 103: 0.00000, 102: 0.00000, 101: 0.00000, 100: 0.00000,  99: 0.00000,
                 98: 0.00000,  97: 0.00000,  96: 0.00000,  95: 0.00000,  94: 0.00000,  93: 0.00000,  92: 0.00000,  91: 0.00000,
                 90: 0.00000,  89: 0.00000,  88: 0.00000,  87: 0.00000,  86: 0.00000,  85: 0.00000,  84: 0.00000,  83: 0.00000,
                 82: 0.00000,  81: 0.00000,  80: 0.00000,  79: 0.00000,  78: 0.00000,  77: 0.00000,  76: 0.00000,  75: 0.00000,
                 74: 0.00000,  73: 0.00000,  72: 0.00000,  71: 0.00000,  70: 0.00000,  69: 0.00000,  68: 0.00000,  67: 0.00000,
                 66: 0.00000,  65: 0.00000,  64: 0.00000,  63: 0.00000,  62: 0.00000,  61: 0.00000,  60: 0.00000,  59: 0.00000,
                 58: 0.00000,  57: 0.00000,  56: 0.00000,  55: 0.00000,  54: 0.00000,  53: 0.00000,  52: 0.00000,  51: 0.00000,
                 50: 0.00000,  49: 0.00000,  48: 0.00000,  47: 0.00000,  46: 0.00000,  45: 0.00000,  44: 0.00000,  43: 0.00000,
                 42: 0.00000,  41: 0.00000,  40: 0.00000,  39: 0.00000,  38: 0.00000,  37: 0.00000,  36: 0.00000,  35: 0.00000,
                 34: 0.00000,  33: 0.00000,  32: 0.00000,  31: 0.00000,  30: 0.00000,  29: 0.00000,  28: 0.00000,  27: 0.00000,
                 26: 0.00000,  25: 0.00000,  24: 0.00000,  23: 0.00000,  22: 0.00000,  21: 0.00000,  20: 0.00000,  19: 0.00000,
                 18: 0.00000,  17: 0.00000,  16: 0.00000,  15: 0.00000,  14: 0.00000,  13: 0.00000,  12: 0.00000,  11: 0.00000,
                 10: 0.00000,   9: 0.00000,   8: 0.00000,   7: 0.00000,   6: 0.00000,   5: 0.00000,   4: 0.00000,   3: 0.00000,
                  2: 0.00000,   1: 0.00000
   173 |      | 162: 0.00000, 161: 0.00000, 160: 0.00000, 159: 0.00000, 158: 0.00000, 157: 0.00000, 156: 0.00000, 155: 0.00000,
                154: 0.00000, 153: 0.00000, 152: 0.00000, 151: 0.00000, 150: 0.00000, 149: 0.00000, 148: 0.00000, 147: 0.00000,
                146: 0.00000, 145: 0.00000, 144: 0.00000, 143: 0.00000, 142: 0.00000, 141: 0.00000, 140: 0.00000, 139: 0.00000,
                138: 0.00000, 137: 0.00000, 136: 0.00000, 135: 0.00000, 134: 0.00000, 133: 0.00000, 132: 0.00000, 131: 0.00000,
                130: 0.00000, 129: 0.00000, 128: 0.00000, 127: 0.00000, 126: 0.00000, 125: 0.00000, 124: 0.00000, 123: 0.00000,
                122: 0.00000, 121: 0.00000, 120: 0.00000, 119: 0.00000, 118: 0.00000, 117: 0.00000, 116: 0.00000, 115: 0.00000,
                114: 0.00000, 113: 0.00000, 112: 0.00000, 111: 0.00000, 110: 0.00000, 109: 0.00000, 108: 0.00000, 107: 0.00000,
                106: 0.00000, 105: 0.00000, 104: 0.00000, 103: 0.00000, 102: 0.00000, 101: 0.00000, 100: 0.00000,  99: 0.00000,
                 98: 0.00000,  97: 0.00000,  96: 0.00000,  95: 0.00000,  94: 0.00000,  93: 0.00000,  92: 0.00000,  91: 0.00000,
                 90: 0.00000,  89: 0.00000,  88: 0.00000,  87: 0.00000,  86: 0.00000,  85: 0.00000,  84: 0.00000,  83: 0.00000,
                 82: 0.00000,  81: 0.00000,  80: 0.00000,  79: 0.00000,  78: 0.00000,  77: 0.00000,  76: 0.00000,  75: 0.00000,
                 74: 0.00000,  73: 0.00000,  72: 0.00000,  71: 0.00000,  70: 0.00000,  69: 0.00000,  68: 0.00000,  67: 0.00000,
                 66: 0.00000,  65: 0.00000,  64: 0.00000,  63: 0.00000,  62: 0.00000,  61: 0.00000,  60: 0.00000,  59: 0.00000,
                 58: 0.00000,  57: 0.00000,  56: 0.00000,  55: 0.00000,  54: 0.00000,  53: 0.00000,  52: 0.00000,  51: 0.00000,
                 50: 0.00000,  49: 0.00000,  48: 0.00000,  47: 0.00000,  46: 0.00000,  45: 0.00000,  44: 0.00000,  43: 0.00000,
                 42: 0.00000,  41: 0.00000,  40: 0.00000,  39: 0.00000,  38: 0.00000,  37: 0.00000,  36: 0.00000,  35: 0.00000,
                 34: 0.00000,  33: 0.00000,  32: 0.00000,  31: 0.00000,  30: 0.00000,  29: 0.00000,  28: 0.00000,  27: 0.00000,
                 26: 0.00000,  25: 0.00000,  24: 0.00000,  23: 0.00000,  22: 0.00000,  21: 0.00000,  20: 0.00000,  19: 0.00000,
                 18: 0.00000,  17: 0.00000,  16: 0.00000,  15: 0.00000,  14: 0.00000,  13: 0.00000,  12: 0.00000,  11: 0.00000,
                 10: 0.00000,   9: 0.00000,   8: 0.00000,   7: 0.00000,   6: 0.00000,   5: 0.00000,   4: 0.00000,   3: 0.00000,
                  2: 0.00000,   1: 0.00000
   174 |      | 162: 0.00000, 161: 0.00000, 160: 0.00000, 159: 0.00000, 158: 0.00000, 157: 0.00000, 156: 0.00000, 155: 0.00000,
                154: 0.00000, 153: 0.00000, 152: 0.00000, 151: 0.00000, 150: 0.00000, 149: 0.00000, 148: 0.00000, 147: 0.00000,
                146: 0.00000, 145: 0.00000, 144: 0.00000, 143: 0.00000, 142: 0.00000, 141: 0.00000, 140: 0.00000, 139: 0.00000,
                138: 0.00000, 137: 0.00000, 136: 0.00000, 135: 0.00000, 134: 0.00000, 133: 0.00000, 132: 0.00000, 131: 0.00000,
                130: 0.00000, 129: 0.00000, 128: 0.00000, 127: 0.00000, 126: 0.00000, 125: 0.00000, 124: 0.00000, 123: 0.00000,
                122: 0.00000, 121: 0.00000, 120: 0.00000, 119: 0.00000, 118: 0.00000, 117: 0.00000, 116: 0.00000, 115: 0.00000,
                114: 0.00000, 113: 0.00000, 112: 0.00000, 111: 0.00000, 110: 0.00000, 109: 0.00000, 108: 0.00000, 107: 0.00000,
                106: 0.00000, 105: 0.00000, 104: 0.00000, 103: 0.00000, 102: 0.00000, 101: 0.00000, 100: 0.00000,  99: 0.00000,
                 98: 0.00000,  97: 0.00000,  96: 0.00000,  95: 0.00000,  94: 0.00000,  93: 0.00000,  92: 0.00000,  91: 0.00000,
                 90: 0.00000,  89: 0.00000,  88: 0.00000,  87: 0.00000,  86: 0.00000,  85: 0.00000,  84: 0.00000,  83: 0.00000,
                 82: 0.00000,  81: 0.00000,  80: 0.00000,  79: 0.00000,  78: 0.00000,  77: 0.00000,  76: 0.00000,  75: 0.00000,
                 74: 0.00000,  73: 0.00000,  72: 0.00000,  71: 0.00000,  70: 0.00000,  69: 0.00000,  68: 0.00000,  67: 0.00000,
                 66: 0.00000,  65: 0.00000,  64: 0.00000,  63: 0.00000,  62: 0.00000,  61: 0.00000,  60: 0.00000,  59: 0.00000,
                 58: 0.00000,  57: 0.00000,  56: 0.00000,  55: 0.00000,  54: 0.00000,  53: 0.00000,  52: 0.00000,  51: 0.00000,
                 50: 0.00000,  49: 0.00000,  48: 0.00000,  47: 0.00000,  46: 0.00000,  45: 0.00000,  44: 0.00000,  43: 0.00000,
                 42: 0.00000,  41: 0.00000,  40: 0.00000,  39: 0.00000,  38: 0.00000,  37: 0.00000,  36: 0.00000,  35: 0.00000,
                 34: 0.00000,  33: 0.00000,  32: 0.00000,  31: 0.00000,  30: 0.00000,  29: 0.00000,  28: 0.00000,  27: 0.00000,
                 26: 0.00000,  25: 0.00000,  24: 0.00000,  23: 0.00000,  22: 0.00000,  21: 0.00000,  20: 0.00000,  19: 0.00000,
                 18: 0.00000,  17: 0.00000,  16: 0.00000,  15: 0.00000,  14: 0.00000,  13: 0.00000,  12: 0.00000,  11: 0.00000,
                 10: 0.00000,   9: 0.00000,   8: 0.00000,   7: 0.00000,   6: 0.00000,   5: 0.00000,   4: 0.00000,   3: 0.00000,
                  2: 0.00000,   1: 0.00000
   175 |      | 162: 0.00000, 161: 0.00000, 160: 0.00000, 159: 0.00000, 158: 0.00000, 157: 0.00000, 156: 0.00000, 155: 0.00000,
                154: 0.00000, 153: 0.00000, 152: 0.00000, 151: 0.00000, 150: 0.00000, 149: 0.00000, 148: 0.00000, 147: 0.00000,
                146: 0.00000, 145: 0.00000, 144: 0.00000, 143: 0.00000, 142: 0.00000, 141: 0.00000, 140: 0.00000, 139: 0.00000,
                138: 0.00000, 137: 0.00000, 136: 0.00000, 135: 0.00000, 134: 0.00000, 133: 0.00000, 132: 0.00000, 131: 0.00000,
                130: 0.00000, 129: 0.00000, 128: 0.00000, 127: 0.00000, 126: 0.00000, 125: 0.00000, 124: 0.00000, 123: 0.00000,
                122: 0.00000, 121: 0.00000, 120: 0.00000, 119: 0.00000, 118: 0.00000, 117: 0.00000, 116: 0.00000, 115: 0.00000,
                114: 0.00000, 113: 0.00000, 112: 0.00000, 111: 0.00000, 110: 0.00000, 109: 0.00000, 108: 0.00000, 107: 0.00000,
                106: 0.00000, 105: 0.00000, 104: 0.00000, 103: 0.00000, 102: 0.00000, 101: 0.00000, 100: 0.00000,  99: 0.00000,
                 98: 0.00000,  97: 0.00000,  96: 0.00000,  95: 0.00000,  94: 0.00000,  93: 0.00000,  92: 0.00000,  91: 0.00000,
                 90: 0.00000,  89: 0.00000,  88: 0.00000,  87: 0.00000,  86: 0.00000,  85: 0.00000,  84: 0.00000,  83: 0.00000,
                 82: 0.00000,  81: 0.00000,  80: 0.00000,  79: 0.00000,  78: 0.00000,  77: 0.00000,  76: 0.00000,  75: 0.00000,
                 74: 0.00000,  73: 0.00000,  72: 0.00000,  71: 0.00000,  70: 0.00000,  69: 0.00000,  68: 0.00000,  67: 0.00000,
                 66: 0.00000,  65: 0.00000,  64: 0.00000,  63: 0.00000,  62: 0.00000,  61: 0.00000,  60: 0.00000,  59: 0.00000,
                 58: 0.00000,  57: 0.00000,  56: 0.00000,  55: 0.00000,  54: 0.00000,  53: 0.00000,  52: 0.00000,  51: 0.00000,
                 50: 0.00000,  49: 0.00000,  48: 0.00000,  47: 0.00000,  46: 0.00000,  45: 0.00000,  44: 0.00000,  43: 0.00000,
                 42: 0.00000,  41: 0.00000,  40: 0.00000,  39: 0.00000,  38: 0.00000,  37: 0.00000,  36: 0.00000,  35: 0.00000,
                 34: 0.00000,  33: 0.00000,  32: 0.00000,  31: 0.00000,  30: 0.00000,  29: 0.00000,  28: 0.00000,  27: 0.00000,
                 26: 0.00000,  25: 0.00000,  24: 0.00000,  23: 0.00000,  22: 0.00000,  21: 0.00000,  20: 0.00000,  19: 0.00000,
                 18: 0.00000,  17: 0.00000,  16: 0.00000,  15: 0.00000,  14: 0.00000,  13: 0.00000,  12: 0.00000,  11: 0.00000,
                 10: 0.00000,   9: 0.00000,   8: 0.00000,   7: 0.00000,   6: 0.00000,   5: 0.00000,   4: 0.00000,   3: 0.00000,
                  2: 0.00000,   1: 0.00000
   176 |      | 162: 0.00000, 161: 0.00000, 160: 0.00000, 159: 0.00000, 158: 0.00000, 157: 0.00000, 156: 0.00000, 155: 0.00000,
                154: 0.00000, 153: 0.00000, 152: 0.00000, 151: 0.00000, 150: 0.00000, 149: 0.00000, 148: 0.00000, 147: 0.00000,
                146: 0.00000, 145: 0.00000, 144: 0.00000, 143: 0.00000, 142: 0.00000, 141: 0.00000, 140: 0.00000, 139: 0.00000,
                138: 0.00000, 137: 0.00000, 136: 0.00000, 135: 0.00000, 134: 0.00000, 133: 0.00000, 132: 0.00000, 131: 0.00000,
                130: 0.00000, 129: 0.00000, 128: 0.00000, 127: 0.00000, 126: 0.00000, 125: 0.00000, 124: 0.00000, 123: 0.00000,
                122: 0.00000, 121: 0.00000, 120: 0.00000, 119: 0.00000, 118: 0.00000, 117: 0.00000, 116: 0.00000, 115: 0.00000,
                114: 0.00000, 113: 0.00000, 112: 0.00000, 111: 0.00000, 110: 0.00000, 109: 0.00000, 108: 0.00000, 107: 0.00000,
                106: 0.00000, 105: 0.00000, 104: 0.00000, 103: 0.00000, 102: 0.00000, 101: 0.00000, 100: 0.00000,  99: 0.00000,
                 98: 0.00000,  97: 0.00000,  96: 0.00000,  95: 0.00000,  94: 0.00000,  93: 0.00000,  92: 0.00000,  91: 0.00000,
                 90: 0.00000,  89: 0.00000,  88: 0.00000,  87: 0.00000,  86: 0.00000,  85: 0.00000,  84: 0.00000,  83: 0.00000,
                 82: 0.00000,  81: 0.00000,  80: 0.00000,  79: 0.00000,  78: 0.00000,  77: 0.00000,  76: 0.00000,  75: 0.00000,
                 74: 0.00000,  73: 0.00000,  72: 0.00000,  71: 0.00000,  70: 0.00000,  69: 0.00000,  68: 0.00000,  67: 0.00000,
                 66: 0.00000,  65: 0.00000,  64: 0.00000,  63: 0.00000,  62: 0.00000,  61: 0.00000,  60: 0.00000,  59: 0.00000,
                 58: 0.00000,  57: 0.00000,  56: 0.00000,  55: 0.00000,  54: 0.00000,  53: 0.00000,  52: 0.00000,  51: 0.00000,
                 50: 0.00000,  49: 0.00000,  48: 0.00000,  47: 0.00000,  46: 0.00000,  45: 0.00000,  44: 0.00000,  43: 0.00000,
                 42: 0.00000,  41: 0.00000,  40: 0.00000,  39: 0.00000,  38: 0.00000,  37: 0.00000,  36: 0.00000,  35: 0.00000,
                 34: 0.00000,  33: 0.00000,  32: 0.00000,  31: 0.00000,  30: 0.00000,  29: 0.00000,  28: 0.00000,  27: 0.00000,
                 26: 0.00000,  25: 0.00000,  24: 0.00000,  23: 0.00000,  22: 0.00000,  21: 0.00000,  20: 0.00000,  19: 0.00000,
                 18: 0.00000,  17: 0.00000,  16: 0.00000,  15: 0.00000,  14: 0.00000,  13: 0.00000,  12: 0.00000,  11: 0.00000,
                 10: 0.00000,   9: 0.00000,   8: 0.00000,   7: 0.00000,   6: 0.00000,   5: 0.00000,   4: 0.00000,   3: 0.00000,
                  2: 0.00000,   1: 0.00000
   177 |      | 162: 0.00000, 161: 0.00000, 160: 0.00000, 159: 0.00000, 158: 0.00000, 157: 0.00000, 156: 0.00000, 155: 0.00000,
                154: 0.00000, 153: 0.00000, 152: 0.00000, 151: 0.00000, 150: 0.00000, 149: 0.00000, 148: 0.00000, 147: 0.00000,
                146: 0.00000, 145: 0.00000, 144: 0.00000, 143: 0.00000, 142: 0.00000, 141: 0.00000, 140: 0.00000, 139: 0.00000,
                138: 0.00000, 137: 0.00000, 136: 0.00000, 135: 0.00000, 134: 0.00000, 133: 0.00000, 132: 0.00000, 131: 0.00000,
                130: 0.00000, 129: 0.00000, 128: 0.00000, 127: 0.00000, 126: 0.00000, 125: 0.00000, 124: 0.00000, 123: 0.00000,
                122: 0.00000, 121: 0.00000, 120: 0.00000, 119: 0.00000, 118: 0.00000, 117: 0.00000, 116: 0.00000, 115: 0.00000,
                114: 0.00000, 113: 0.00000, 112: 0.00000, 111: 0.00000, 110: 0.00000, 109: 0.00000, 108: 0.00000, 107: 0.00000,
                106: 0.00000, 105: 0.00000, 104: 0.00000, 103: 0.00000, 102: 0.00000, 101: 0.00000, 100: 0.00000,  99: 0.00000,
                 98: 0.00000,  97: 0.00000,  96: 0.00000,  95: 0.00000,  94: 0.00000,  93: 0.00000,  92: 0.00000,  91: 0.00000,
                 90: 0.00000,  89: 0.00000,  88: 0.00000,  87: 0.00000,  86: 0.00000,  85: 0.00000,  84: 0.00000,  83: 0.00000,
                 82: 0.00000,  81: 0.00000,  80: 0.00000,  79: 0.00000,  78: 0.00000,  77: 0.00000,  76: 0.00000,  75: 0.00000,
                 74: 0.00000,  73: 0.00000,  72: 0.00000,  71: 0.00000,  70: 0.00000,  69: 0.00000,  68: 0.00000,  67: 0.00000,
                 66: 0.00000,  65: 0.00000,  64: 0.00000,  63: 0.00000,  62: 0.00000,  61: 0.00000,  60: 0.00000,  59: 0.00000,
                 58: 0.00000,  57: 0.00000,  56: 0.00000,  55: 0.00000,  54: 0.00000,  53: 0.00000,  52: 0.00000,  51: 0.00000,
                 50: 0.00000,  49: 0.00000,  48: 0.00000,  47: 0.00000,  46: 0.00000,  45: 0.00000,  44: 0.00000,  43: 0.00000,
                 42: 0.00000,  41: 0.00000,  40: 0.00000,  39: 0.00000,  38: 0.00000,  37: 0.00000,  36: 0.00000,  35: 0.00000,
                 34: 0.00000,  33: 0.00000,  32: 0.00000,  31: 0.00000,  30: 0.00000,  29: 0.00000,  28: 0.00000,  27: 0.00000,
                 26: 0.00000,  25: 0.00000,  24: 0.00000,  23: 0.00000,  22: 0.00000,  21: 0.00000,  20: 0.00000,  19: 0.00000,
                 18: 0.00000,  17: 0.00000,  16: 0.00000,  15: 0.00000,  14: 0.00000,  13: 0.00000,  12: 0.00000,  11: 0.00000,
                 10: 0.00000,   9: 0.00000,   8: 0.00000,   7: 0.00000,   6: 0.00000,   5: 0.00000,   4: 0.00000,   3: 0.00000,
                  2: 0.00000,   1: 0.00000
   178 |      | 162: 0.00000, 161: 0.00000, 160: 0.00000, 159: 0.00000, 158: 0.00000, 157: 0.00000, 156: 0.00000, 155: 0.00000,
                154: 0.00000, 153: 0.00000, 152: 0.00000, 151: 0.00000, 150: 0.00000, 149: 0.00000, 148: 0.00000, 147: 0.00000,
                146: 0.00000, 145: 0.00000, 144: 0.00000, 143: 0.00000, 142: 0.00000, 141: 0.00000, 140: 0.00000, 139: 0.00000,
                138: 0.00000, 137: 0.00000, 136: 0.00000, 135: 0.00000, 134: 0.00000, 133: 0.00000, 132: 0.00000, 131: 0.00000,
                130: 0.00000, 129: 0.00000, 128: 0.00000, 127: 0.00000, 126: 0.00000, 125: 0.00000, 124: 0.00000, 123: 0.00000,
                122: 0.00000, 121: 0.00000, 120: 0.00000, 119: 0.00000, 118: 0.00000, 117: 0.00000, 116: 0.00000, 115: 0.00000,
                114: 0.00000, 113: 0.00000, 112: 0.00000, 111: 0.00000, 110: 0.00000, 109: 0.00000, 108: 0.00000, 107: 0.00000,
                106: 0.00000, 105: 0.00000, 104: 0.00000, 103: 0.00000, 102: 0.00000, 101: 0.00000, 100: 0.00000,  99: 0.00000,
                 98: 0.00000,  97: 0.00000,  96: 0.00000,  95: 0.00000,  94: 0.00000,  93: 0.00000,  92: 0.00000,  91: 0.00000,
                 90: 0.00000,  89: 0.00000,  88: 0.00000,  87: 0.00000,  86: 0.00000,  85: 0.00000,  84: 0.00000,  83: 0.00000,
                 82: 0.00000,  81: 0.00000,  80: 0.00000,  79: 0.00000,  78: 0.00000,  77: 0.00000,  76: 0.00000,  75: 0.00000,
                 74: 0.00000,  73: 0.00000,  72: 0.00000,  71: 0.00000,  70: 0.00000,  69: 0.00000,  68: 0.00000,  67: 0.00000,
                 66: 0.00000,  65: 0.00000,  64: 0.00000,  63: 0.00000,  62: 0.00000,  61: 0.00000,  60: 0.00000,  59: 0.00000,
                 58: 0.00000,  57: 0.00000,  56: 0.00000,  55: 0.00000,  54: 0.00000,  53: 0.00000,  52: 0.00000,  51: 0.00000,
                 50: 0.00000,  49: 0.00000,  48: 0.00000,  47: 0.00000,  46: 0.00000,  45: 0.00000,  44: 0.00000,  43: 0.00000,
                 42: 0.00000,  41: 0.00000,  40: 0.00000,  39: 0.00000,  38: 0.00000,  37: 0.00000,  36: 0.00000,  35: 0.00000,
                 34: 0.00000,  33: 0.00000,  32: 0.00000,  31: 0.00000,  30: 0.00000,  29: 0.00000,  28: 0.00000,  27: 0.00000,
                 26: 0.00000,  25: 0.00000,  24: 0.00000,  23: 0.00000,  22: 0.00000,  21: 0.00000,  20: 0.00000,  19: 0.00000,
                 18: 0.00000,  17: 0.00000,  16: 0.00000,  15: 0.00000,  14: 0.00000,  13: 0.00000,  12: 0.00000,  11: 0.00000,
                 10: 0.00000,   9: 0.00000,   8: 0.00000,   7: 0.00000,   6: 0.00000,   5: 0.00000,   4: 0.00000,   3: 0.00000,
                  2: 0.00000,   1: 0.00000
   179 |      | 162: 0.00000, 161: 0.00000, 160: 0.00000, 159: 0.00000, 158: 0.00000, 157: 0.00000, 156: 0.00000, 155: 0.00000,
                154: 0.00000, 153: 0.00000, 152: 0.00000, 151: 0.00000, 150: 0.00000, 149: 0.00000, 148: 0.00000, 147: 0.00000,
                146: 0.00000, 145: 0.00000, 144: 0.00000, 143: 0.00000, 142: 0.00000, 141: 0.00000, 140: 0.00000, 139: 0.00000,
                138: 0.00000, 137: 0.00000, 136: 0.00000, 135: 0.00000, 134: 0.00000, 133: 0.00000, 132: 0.00000, 131: 0.00000,
                130: 0.00000, 129: 0.00000, 128: 0.00000, 127: 0.00000, 126: 0.00000, 125: 0.00000, 124: 0.00000, 123: 0.00000,
                122: 0.00000, 121: 0.00000, 120: 0.00000, 119: 0.00000, 118: 0.00000, 117: 0.00000, 116: 0.00000, 115: 0.00000,
                114: 0.00000, 113: 0.00000, 112: 0.00000, 111: 0.00000, 110: 0.00000, 109: 0.00000, 108: 0.00000, 107: 0.00000,
                106: 0.00000, 105: 0.00000, 104: 0.00000, 103: 0.00000, 102: 0.00000, 101: 0.00000, 100: 0.00000,  99: 0.00000,
                 98: 0.00000,  97: 0.00000,  96: 0.00000,  95: 0.00000,  94: 0.00000,  93: 0.00000,  92: 0.00000,  91: 0.00000,
                 90: 0.00000,  89: 0.00000,  88: 0.00000,  87: 0.00000,  86: 0.00000,  85: 0.00000,  84: 0.00000,  83: 0.00000,
                 82: 0.00000,  81: 0.00000,  80: 0.00000,  79: 0.00000,  78: 0.00000,  77: 0.00000,  76: 0.00000,  75: 0.00000,
                 74: 0.00000,  73: 0.00000,  72: 0.00000,  71: 0.00000,  70: 0.00000,  69: 0.00000,  68: 0.00000,  67: 0.00000,
                 66: 0.00000,  65: 0.00000,  64: 0.00000,  63: 0.00000,  62: 0.00000,  61: 0.00000,  60: 0.00000,  59: 0.00000,
                 58: 0.00000,  57: 0.00000,  56: 0.00000,  55: 0.00000,  54: 0.00000,  53: 0.00000,  52: 0.00000,  51: 0.00000,
                 50: 0.00000,  49: 0.00000,  48: 0.00000,  47: 0.00000,  46: 0.00000,  45: 0.00000,  44: 0.00000,  43: 0.00000,
                 42: 0.00000,  41: 0.00000,  40: 0.00000,  39: 0.00000,  38: 0.00000,  37: 0.00000,  36: 0.00000,  35: 0.00000,
                 34: 0.00000,  33: 0.00000,  32: 0.00000,  31: 0.00000,  30: 0.00000,  29: 0.00000,  28: 0.00000,  27: 0.00000,
                 26: 0.00000,  25: 0.00000,  24: 0.00000,  23: 0.00000,  22: 0.00000,  21: 0.00000,  20: 0.00000,  19: 0.00000,
                 18: 0.00000,  17: 0.00000,  16: 0.00000,  15: 0.00000,  14: 0.00000,  13: 0.00000,  12: 0.00000,  11: 0.00000,
                 10: 0.00000,   9: 0.00000,   8: 0.00000,   7: 0.00000,   6: 0.00000,   5: 0.00000,   4: 0.00000,   3: 0.00000,
                  2: 0.00000,   1: 0.00000
   180 |      | 162: 0.00000, 161: 0.00000, 160: 0.00000, 159: 0.00000, 158: 0.00000, 157: 0.00000, 156: 0.00000, 155: 0.00000,
                154: 0.00000, 153: 0.00000, 152: 0.00000, 151: 0.00000, 150: 0.00000, 149: 0.00000, 148: 0.00000, 147: 0.00000,
                146: 0.00000, 145: 0.00000, 144: 0.00000, 143: 0.00000, 142: 0.00000, 141: 0.00000, 140: 0.00000, 139: 0.00000,
                138: 0.00000, 137: 0.00000, 136: 0.00000, 135: 0.00000, 134: 0.00000, 133: 0.00000, 132: 0.00000, 131: 0.00000,
                130: 0.00000, 129: 0.00000, 128: 0.00000, 127: 0.00000, 126: 0.00000, 125: 0.00000, 124: 0.00000, 123: 0.00000,
                122: 0.00000, 121: 0.00000, 120: 0.00000, 119: 0.00000, 118: 0.00000, 117: 0.00000, 116: 0.00000, 115: 0.00000,
                114: 0.00000, 113: 0.00000, 112: 0.00000, 111: 0.00000, 110: 0.00000, 109: 0.00000, 108: 0.00000, 107: 0.00000,
                106: 0.00000, 105: 0.00000, 104: 0.00000, 103: 0.00000, 102: 0.00000, 101: 0.00000, 100: 0.00000,  99: 0.00000,
                 98: 0.00000,  97: 0.00000,  96: 0.00000,  95: 0.00000,  94: 0.00000,  93: 0.00000,  92: 0.00000,  91: 0.00000,
                 90: 0.00000,  89: 0.00000,  88: 0.00000,  87: 0.00000,  86: 0.00000,  85: 0.00000,  84: 0.00000,  83: 0.00000,
                 82: 0.00000,  81: 0.00000,  80: 0.00000,  79: 0.00000,  78: 0.00000,  77: 0.00000,  76: 0.00000,  75: 0.00000,
                 74: 0.00000,  73: 0.00000,  72: 0.00000,  71: 0.00000,  70: 0.00000,  69: 0.00000,  68: 0.00000,  67: 0.00000,
                 66: 0.00000,  65: 0.00000,  64: 0.00000,  63: 0.00000,  62: 0.00000,  61: 0.00000,  60: 0.00000,  59: 0.00000,
                 58: 0.00000,  57: 0.00000,  56: 0.00000,  55: 0.00000,  54: 0.00000,  53: 0.00000,  52: 0.00000,  51: 0.00000,
                 50: 0.00000,  49: 0.00000,  48: 0.00000,  47: 0.00000,  46: 0.00000,  45: 0.00000,  44: 0.00000,  43: 0.00000,
                 42: 0.00000,  41: 0.00000,  40: 0.00000,  39: 0.00000,  38: 0.00000,  37: 0.00000,  36: 0.00000,  35: 0.00000,
                 34: 0.00000,  33: 0.00000,  32: 0.00000,  31: 0.00000,  30: 0.00000,  29: 0.00000,  28: 0.00000,  27: 0.00000,
                 26: 0.00000,  25: 0.00000,  24: 0.00000,  23: 0.00000,  22: 0.00000,  21: 0.00000,  20: 0.00000,  19: 0.00000,
                 18: 0.00000,  17: 0.00000,  16: 0.00000,  15: 0.00000,  14: 0.00000,  13: 0.00000,  12: 0.00000,  11: 0.00000,
                 10: 0.00000,   9: 0.00000,   8: 0.00000,   7: 0.00000,   6: 0.00000,   5: 0.00000,   4: 0.00000,   3: 0.00000,
                  2: 0.00000,   1: 0.00000
   181 |      | 162: 0.00000, 161: 0.00000, 160: 0.00000, 159: 0.00000, 158: 0.00000, 157: 0.00000, 156: 0.00000, 155: 0.00000,
                154: 0.00000, 153: 0.00000, 152: 0.00000, 151: 0.00000, 150: 0.00000, 149: 0.00000, 148: 0.00000, 147: 0.00000,
                146: 0.00000, 145: 0.00000, 144: 0.00000, 143: 0.00000, 142: 0.00000, 141: 0.00000, 140: 0.00000, 139: 0.00000,
                138: 0.00000, 137: 0.00000, 136: 0.00000, 135: 0.00000, 134: 0.00000, 133: 0.00000, 132: 0.00000, 131: 0.00000,
                130: 0.00000, 129: 0.00000, 128: 0.00000, 127: 0.00000, 126: 0.00000, 125: 0.00000, 124: 0.00000, 123: 0.00000,
                122: 0.00000, 121: 0.00000, 120: 0.00000, 119: 0.00000, 118: 0.00000, 117: 0.00000, 116: 0.00000, 115: 0.00000,
                114: 0.00000, 113: 0.00000, 112: 0.00000, 111: 0.00000, 110: 0.00000, 109: 0.00000, 108: 0.00000, 107: 0.00000,
                106: 0.00000, 105: 0.00000, 104: 0.00000, 103: 0.00000, 102: 0.00000, 101: 0.00000, 100: 0.00000,  99: 0.00000,
                 98: 0.00000,  97: 0.00000,  96: 0.00000,  95: 0.00000,  94: 0.00000,  93: 0.00000,  92: 0.00000,  91: 0.00000,
                 90: 0.00000,  89: 0.00000,  88: 0.00000,  87: 0.00000,  86: 0.00000,  85: 0.00000,  84: 0.00000,  83: 0.00000,
                 82: 0.00000,  81: 0.00000,  80: 0.00000,  79: 0.00000,  78: 0.00000,  77: 0.00000,  76: 0.00000,  75: 0.00000,
                 74: 0.00000,  73: 0.00000,  72: 0.00000,  71: 0.00000,  70: 0.00000,  69: 0.00000,  68: 0.00000,  67: 0.00000,
                 66: 0.00000,  65: 0.00000,  64: 0.00000,  63: 0.00000,  62: 0.00000,  61: 0.00000,  60: 0.00000,  59: 0.00000,
                 58: 0.00000,  57: 0.00000,  56: 0.00000,  55: 0.00000,  54: 0.00000,  53: 0.00000,  52: 0.00000,  51: 0.00000,
                 50: 0.00000,  49: 0.00000,  48: 0.00000,  47: 0.00000,  46: 0.00000,  45: 0.00000,  44: 0.00000,  43: 0.00000,
                 42: 0.00000,  41: 0.00000,  40: 0.00000,  39: 0.00000,  38: 0.00000,  37: 0.00000,  36: 0.00000,  35: 0.00000,
                 34: 0.00000,  33: 0.00000,  32: 0.00000,  31: 0.00000,  30: 0.00000,  29: 0.00000,  28: 0.00000,  27: 0.00000,
                 26: 0.00000,  25: 0.00000,  24: 0.00000,  23: 0.00000,  22: 0.00000,  21: 0.00000,  20: 0.00000,  19: 0.00000,
                 18: 0.00000,  17: 0.00000,  16: 0.00000,  15: 0.00000,  14: 0.00000,  13: 0.00000,  12: 0.00000,  11: 0.00000,
                 10: 0.00000,   9: 0.00000,   8: 0.00000,   7: 0.00000,   6: 0.00000,   5: 0.00000,   4: 0.00000,   3: 0.00000,
                  2: 0.00000,   1: 0.00000
   182 |      | 162: 0.00000, 161: 0.00000, 160: 0.00000, 159: 0.00000, 158: 0.00000, 157: 0.00000, 156: 0.00000, 155: 0.00000,
                154: 0.00000, 153: 0.00000, 152: 0.00000, 151: 0.00000, 150: 0.00000, 149: 0.00000, 148: 0.00000, 147: 0.00000,
                146: 0.00000, 145: 0.00000, 144: 0.00000, 143: 0.00000, 142: 0.00000, 141: 0.00000, 140: 0.00000, 139: 0.00000,
                138: 0.00000, 137: 0.00000, 136: 0.00000, 135: 0.00000, 134: 0.00000, 133: 0.00000, 132: 0.00000, 131: 0.00000,
                130: 0.00000, 129: 0.00000, 128: 0.00000, 127: 0.00000, 126: 0.00000, 125: 0.00000, 124: 0.00000, 123: 0.00000,
                122: 0.00000, 121: 0.00000, 120: 0.00000, 119: 0.00000, 118: 0.00000, 117: 0.00000, 116: 0.00000, 115: 0.00000,
                114: 0.00000, 113: 0.00000, 112: 0.00000, 111: 0.00000, 110: 0.00000, 109: 0.00000, 108: 0.00000, 107: 0.00000,
                106: 0.00000, 105: 0.00000, 104: 0.00000, 103: 0.00000, 102: 0.00000, 101: 0.00000, 100: 0.00000,  99: 0.00000,
                 98: 0.00000,  97: 0.00000,  96: 0.00000,  95: 0.00000,  94: 0.00000,  93: 0.00000,  92: 0.00000,  91: 0.00000,
                 90: 0.00000,  89: 0.00000,  88: 0.00000,  87: 0.00000,  86: 0.00000,  85: 0.00000,  84: 0.00000,  83: 0.00000,
                 82: 0.00000,  81: 0.00000,  80: 0.00000,  79: 0.00000,  78: 0.00000,  77: 0.00000,  76: 0.00000,  75: 0.00000,
                 74: 0.00000,  73: 0.00000,  72: 0.00000,  71: 0.00000,  70: 0.00000,  69: 0.00000,  68: 0.00000,  67: 0.00000,
                 66: 0.00000,  65: 0.00000,  64: 0.00000,  63: 0.00000,  62: 0.00000,  61: 0.00000,  60: 0.00000,  59: 0.00000,
                 58: 0.00000,  57: 0.00000,  56: 0.00000,  55: 0.00000,  54: 0.00000,  53: 0.00000,  52: 0.00000,  51: 0.00000,
                 50: 0.00000,  49: 0.00000,  48: 0.00000,  47: 0.00000,  46: 0.00000,  45: 0.00000,  44: 0.00000,  43: 0.00000,
                 42: 0.00000,  41: 0.00000,  40: 0.00000,  39: 0.00000,  38: 0.00000,  37: 0.00000,  36: 0.00000,  35: 0.00000,
                 34: 0.00000,  33: 0.00000,  32: 0.00000,  31: 0.00000,  30: 0.00000,  29: 0.00000,  28: 0.00000,  27: 0.00000,
                 26: 0.00000,  25: 0.00000,  24: 0.00000,  23: 0.00000,  22: 0.00000,  21: 0.00000,  20: 0.00000,  19: 0.00000,
                 18: 0.00000,  17: 0.00000,  16: 0.00000,  15: 0.00000,  14: 0.00000,  13: 0.00000,  12: 0.00000,  11: 0.00000,
                 10: 0.00000,   9: 0.00000,   8: 0.00000,   7: 0.00000,   6: 0.00000,   5: 0.00000,   4: 0.00000,   3: 0.00000,
                  2: 0.00000,   1: 0.00000
   183 |      | 162: 0.00000, 161: 0.00000, 160: 0.00000, 159: 0.00000, 158: 0.00000, 157: 0.00000, 156: 0.00000, 155: 0.00000,
                154: 0.00000, 153: 0.00000, 152: 0.00000, 151: 0.00000, 150: 0.00000, 149: 0.00000, 148: 0.00000, 147: 0.00000,
                146: 0.00000, 145: 0.00000, 144: 0.00000, 143: 0.00000, 142: 0.00000, 141: 0.00000, 140: 0.00000, 139: 0.00000,
                138: 0.00000, 137: 0.00000, 136: 0.00000, 135: 0.00000, 134: 0.00000, 133: 0.00000, 132: 0.00000, 131: 0.00000,
                130: 0.00000, 129: 0.00000, 128: 0.00000, 127: 0.00000, 126: 0.00000, 125: 0.00000, 124: 0.00000, 123: 0.00000,
                122: 0.00000, 121: 0.00000, 120: 0.00000, 119: 0.00000, 118: 0.00000, 117: 0.00000, 116: 0.00000, 115: 0.00000,
                114: 0.00000, 113: 0.00000, 112: 0.00000, 111: 0.00000, 110: 0.00000, 109: 0.00000, 108: 0.00000, 107: 0.00000,
                106: 0.00000, 105: 0.00000, 104: 0.00000, 103: 0.00000, 102: 0.00000, 101: 0.00000, 100: 0.00000,  99: 0.00000,
                 98: 0.00000,  97: 0.00000,  96: 0.00000,  95: 0.00000,  94: 0.00000,  93: 0.00000,  92: 0.00000,  91: 0.00000,
                 90: 0.00000,  89: 0.00000,  88: 0.00000,  87: 0.00000,  86: 0.00000,  85: 0.00000,  84: 0.00000,  83: 0.00000,
                 82: 0.00000,  81: 0.00000,  80: 0.00000,  79: 0.00000,  78: 0.00000,  77: 0.00000,  76: 0.00000,  75: 0.00000,
                 74: 0.00000,  73: 0.00000,  72: 0.00000,  71: 0.00000,  70: 0.00000,  69: 0.00000,  68: 0.00000,  67: 0.00000,
                 66: 0.00000,  65: 0.00000,  64: 0.00000,  63: 0.00000,  62: 0.00000,  61: 0.00000,  60: 0.00000,  59: 0.00000,
                 58: 0.00000,  57: 0.00000,  56: 0.00000,  55: 0.00000,  54: 0.00000,  53: 0.00000,  52: 0.00000,  51: 0.00000,
                 50: 0.00000,  49: 0.00000,  48: 0.00000,  47: 0.00000,  46: 0.00000,  45: 0.00000,  44: 0.00000,  43: 0.00000,
                 42: 0.00000,  41: 0.00000,  40: 0.00000,  39: 0.00000,  38: 0.00000,  37: 0.00000,  36: 0.00000,  35: 0.00000,
                 34: 0.00000,  33: 0.00000,  32: 0.00000,  31: 0.00000,  30: 0.00000,  29: 0.00000,  28: 0.00000,  27: 0.00000,
                 26: 0.00000,  25: 0.00000,  24: 0.00000,  23: 0.00000,  22: 0.00000,  21: 0.00000,  20: 0.00000,  19: 0.00000,
                 18: 0.00000,  17: 0.00000,  16: 0.00000,  15: 0.00000,  14: 0.00000,  13: 0.00000,  12: 0.00000,  11: 0.00000,
                 10: 0.00000,   9: 0.00000,   8: 0.00000,   7: 0.00000,   6: 0.00000,   5: 0.00000,   4: 0.00000,   3: 0.00000,
                  2: 0.00000,   1: 0.00000
   184 |      | 162: 0.00000, 161: 0.00000, 160: 0.00000, 159: 0.00000, 158: 0.00000, 157: 0.00000, 156: 0.00000, 155: 0.00000,
                154: 0.00000, 153: 0.00000, 152: 0.00000, 151: 0.00000, 150: 0.00000, 149: 0.00000, 148: 0.00000, 147: 0.00000,
                146: 0.00000, 145: 0.00000, 144: 0.00000, 143: 0.00000, 142: 0.00000, 141: 0.00000, 140: 0.00000, 139: 0.00000,
                138: 0.00000, 137: 0.00000, 136: 0.00000, 135: 0.00000, 134: 0.00000, 133: 0.00000, 132: 0.00000, 131: 0.00000,
                130: 0.00000, 129: 0.00000, 128: 0.00000, 127: 0.00000, 126: 0.00000, 125: 0.00000, 124: 0.00000, 123: 0.00000,
                122: 0.00000, 121: 0.00000, 120: 0.00000, 119: 0.00000, 118: 0.00000, 117: 0.00000, 116: 0.00000, 115: 0.00000,
                114: 0.00000, 113: 0.00000, 112: 0.00000, 111: 0.00000, 110: 0.00000, 109: 0.00000, 108: 0.00000, 107: 0.00000,
                106: 0.00000, 105: 0.00000, 104: 0.00000, 103: 0.00000, 102: 0.00000, 101: 0.00000, 100: 0.00000,  99: 0.00000,
                 98: 0.00000,  97: 0.00000,  96: 0.00000,  95: 0.00000,  94: 0.00000,  93: 0.00000,  92: 0.00000,  91: 0.00000,
                 90: 0.00000,  89: 0.00000,  88: 0.00000,  87: 0.00000,  86: 0.00000,  85: 0.00000,  84: 0.00000,  83: 0.00000,
                 82: 0.00000,  81: 0.00000,  80: 0.00000,  79: 0.00000,  78: 0.00000,  77: 0.00000,  76: 0.00000,  75: 0.00000,
                 74: 0.00000,  73: 0.00000,  72: 0.00000,  71: 0.00000,  70: 0.00000,  69: 0.00000,  68: 0.00000,  67: 0.00000,
                 66: 0.00000,  65: 0.00000,  64: 0.00000,  63: 0.00000,  62: 0.00000,  61: 0.00000,  60: 0.00000,  59: 0.00000,
                 58: 0.00000,  57: 0.00000,  56: 0.00000,  55: 0.00000,  54: 0.00000,  53: 0.00000,  52: 0.00000,  51: 0.00000,
                 50: 0.00000,  49: 0.00000,  48: 0.00000,  47: 0.00000,  46: 0.00000,  45: 0.00000,  44: 0.00000,  43: 0.00000,
                 42: 0.00000,  41: 0.00000,  40: 0.00000,  39: 0.00000,  38: 0.00000,  37: 0.00000,  36: 0.00000,  35: 0.00000,
                 34: 0.00000,  33: 0.00000,  32: 0.00000,  31: 0.00000,  30: 0.00000,  29: 0.00000,  28: 0.00000,  27: 0.00000,
                 26: 0.00000,  25: 0.00000,  24: 0.00000,  23: 0.00000,  22: 0.00000,  21: 0.00000,  20: 0.00000,  19: 0.00000,
                 18: 0.00000,  17: 0.00000,  16: 0.00000,  15: 0.00000,  14: 0.00000,  13: 0.00000,  12: 0.00000,  11: 0.00000,
                 10: 0.00000,   9: 0.00000,   8: 0.00000,   7: 0.00000,   6: 0.00000,   5: 0.00000,   4: 0.00000,   3: 0.00000,
                  2: 0.00000,   1: 0.00000
   185 |      | 162: 0.00000, 161: 0.00000, 160: 0.00000, 159: 0.00000, 158: 0.00000, 157: 0.00000, 156: 0.00000, 155: 0.00000,
                154: 0.00000, 153: 0.00000, 152: 0.00000, 151: 0.00000, 150: 0.00000, 149: 0.00000, 148: 0.00000, 147: 0.00000,
                146: 0.00000, 145: 0.00000, 144: 0.00000, 143: 0.00000, 142: 0.00000, 141: 0.00000, 140: 0.00000, 139: 0.00000,
                138: 0.00000, 137: 0.00000, 136: 0.00000, 135: 0.00000, 134: 0.00000, 133: 0.00000, 132: 0.00000, 131: 0.00000,
                130: 0.00000, 129: 0.00000, 128: 0.00000, 127: 0.00000, 126: 0.00000, 125: 0.00000, 124: 0.00000, 123: 0.00000,
                122: 0.00000, 121: 0.00000, 120: 0.00000, 119: 0.00000, 118: 0.00000, 117: 0.00000, 116: 0.00000, 115: 0.00000,
                114: 0.00000, 113: 0.00000, 112: 0.00000, 111: 0.00000, 110: 0.00000, 109: 0.00000, 108: 0.00000, 107: 0.00000,
                106: 0.00000, 105: 0.00000, 104: 0.00000, 103: 0.00000, 102: 0.00000, 101: 0.00000, 100: 0.00000,  99: 0.00000,
                 98: 0.00000,  97: 0.00000,  96: 0.00000,  95: 0.00000,  94: 0.00000,  93: 0.00000,  92: 0.00000,  91: 0.00000,
                 90: 0.00000,  89: 0.00000,  88: 0.00000,  87: 0.00000,  86: 0.00000,  85: 0.00000,  84: 0.00000,  83: 0.00000,
                 82: 0.00000,  81: 0.00000,  80: 0.00000,  79: 0.00000,  78: 0.00000,  77: 0.00000,  76: 0.00000,  75: 0.00000,
                 74: 0.00000,  73: 0.00000,  72: 0.00000,  71: 0.00000,  70: 0.00000,  69: 0.00000,  68: 0.00000,  67: 0.00000,
                 66: 0.00000,  65: 0.00000,  64: 0.00000,  63: 0.00000,  62: 0.00000,  61: 0.00000,  60: 0.00000,  59: 0.00000,
                 58: 0.00000,  57: 0.00000,  56: 0.00000,  55: 0.00000,  54: 0.00000,  53: 0.00000,  52: 0.00000,  51: 0.00000,
                 50: 0.00000,  49: 0.00000,  48: 0.00000,  47: 0.00000,  46: 0.00000,  45: 0.00000,  44: 0.00000,  43: 0.00000,
                 42: 0.00000,  41: 0.00000,  40: 0.00000,  39: 0.00000,  38: 0.00000,  37: 0.00000,  36: 0.00000,  35: 0.00000,
                 34: 0.00000,  33: 0.00000,  32: 0.00000,  31: 0.00000,  30: 0.00000,  29: 0.00000,  28: 0.00000,  27: 0.00000,
                 26: 0.00000,  25: 0.00000,  24: 0.00000,  23: 0.00000,  22: 0.00000,  21: 0.00000,  20: 0.00000,  19: 0.00000,
                 18: 0.00000,  17: 0.00000,  16: 0.00000,  15: 0.00000,  14: 0.00000,  13: 0.00000,  12: 0.00000,  11: 0.00000,
                 10: 0.00000,   9: 0.00000,   8: 0.00000,   7: 0.00000,   6: 0.00000,   5: 0.00000,   4: 0.00000,   3: 0.00000,
                  2: 0.00000,   1: 0.00000
   186 |      | 162: 0.00000, 161: 0.00000, 160: 0.00000, 159: 0.00000, 158: 0.00000, 157: 0.00000, 156: 0.00000, 155: 0.00000,
                154: 0.00000, 153: 0.00000, 152: 0.00000, 151: 0.00000, 150: 0.00000, 149: 0.00000, 148: 0.00000, 147: 0.00000,
                146: 0.00000, 145: 0.00000, 144: 0.00000, 143: 0.00000, 142: 0.00000, 141: 0.00000, 140: 0.00000, 139: 0.00000,
                138: 0.00000, 137: 0.00000, 136: 0.00000, 135: 0.00000, 134: 0.00000, 133: 0.00000, 132: 0.00000, 131: 0.00000,
                130: 0.00000, 129: 0.00000, 128: 0.00000, 127: 0.00000, 126: 0.00000, 125: 0.00000, 124: 0.00000, 123: 0.00000,
                122: 0.00000, 121: 0.00000, 120: 0.00000, 119: 0.00000, 118: 0.00000, 117: 0.00000, 116: 0.00000, 115: 0.00000,
                114: 0.00000, 113: 0.00000, 112: 0.00000, 111: 0.00000, 110: 0.00000, 109: 0.00000, 108: 0.00000, 107: 0.00000,
                106: 0.00000, 105: 0.00000, 104: 0.00000, 103: 0.00000, 102: 0.00000, 101: 0.00000, 100: 0.00000,  99: 0.00000,
                 98: 0.00000,  97: 0.00000,  96: 0.00000,  95: 0.00000,  94: 0.00000,  93: 0.00000,  92: 0.00000,  91: 0.00000,
                 90: 0.00000,  89: 0.00000,  88: 0.00000,  87: 0.00000,  86: 0.00000,  85: 0.00000,  84: 0.00000,  83: 0.00000,
                 82: 0.00000,  81: 0.00000,  80: 0.00000,  79: 0.00000,  78: 0.00000,  77: 0.00000,  76: 0.00000,  75: 0.00000,
                 74: 0.00000,  73: 0.00000,  72: 0.00000,  71: 0.00000,  70: 0.00000,  69: 0.00000,  68: 0.00000,  67: 0.00000,
                 66: 0.00000,  65: 0.00000,  64: 0.00000,  63: 0.00000,  62: 0.00000,  61: 0.00000,  60: 0.00000,  59: 0.00000,
                 58: 0.00000,  57: 0.00000,  56: 0.00000,  55: 0.00000,  54: 0.00000,  53: 0.00000,  52: 0.00000,  51: 0.00000,
                 50: 0.00000,  49: 0.00000,  48: 0.00000,  47: 0.00000,  46: 0.00000,  45: 0.00000,  44: 0.00000,  43: 0.00000,
                 42: 0.00000,  41: 0.00000,  40: 0.00000,  39: 0.00000,  38: 0.00000,  37: 0.00000,  36: 0.00000,  35: 0.00000,
                 34: 0.00000,  33: 0.00000,  32: 0.00000,  31: 0.00000,  30: 0.00000,  29: 0.00000,  28: 0.00000,  27: 0.00000,
                 26: 0.00000,  25: 0.00000,  24: 0.00000,  23: 0.00000,  22: 0.00000,  21: 0.00000,  20: 0.00000,  19: 0.00000,
                 18: 0.00000,  17: 0.00000,  16: 0.00000,  15: 0.00000,  14: 0.00000,  13: 0.00000,  12: 0.00000,  11: 0.00000,
                 10: 0.00000,   9: 0.00000,   8: 0.00000,   7: 0.00000,   6: 0.00000,   5: 0.00000,   4: 0.00000,   3: 0.00000,
                  2: 0.00000,   1: 0.00000
   187 |      | 162: 0.00000, 161: 0.00000, 160: 0.00000, 159: 0.00000, 158: 0.00000, 157: 0.00000, 156: 0.00000, 155: 0.00000,
                154: 0.00000, 153: 0.00000, 152: 0.00000, 151: 0.00000, 150: 0.00000, 149: 0.00000, 148: 0.00000, 147: 0.00000,
                146: 0.00000, 145: 0.00000, 144: 0.00000, 143: 0.00000, 142: 0.00000, 141: 0.00000, 140: 0.00000, 139: 0.00000,
                138: 0.00000, 137: 0.00000, 136: 0.00000, 135: 0.00000, 134: 0.00000, 133: 0.00000, 132: 0.00000, 131: 0.00000,
                130: 0.00000, 129: 0.00000, 128: 0.00000, 127: 0.00000, 126: 0.00000, 125: 0.00000, 124: 0.00000, 123: 0.00000,
                122: 0.00000, 121: 0.00000, 120: 0.00000, 119: 0.00000, 118: 0.00000, 117: 0.00000, 116: 0.00000, 115: 0.00000,
                114: 0.00000, 113: 0.00000, 112: 0.00000, 111: 0.00000, 110: 0.00000, 109: 0.00000, 108: 0.00000, 107: 0.00000,
                106: 0.00000, 105: 0.00000, 104: 0.00000, 103: 0.00000, 102: 0.00000, 101: 0.00000, 100: 0.00000,  99: 0.00000,
                 98: 0.00000,  97: 0.00000,  96: 0.00000,  95: 0.00000,  94: 0.00000,  93: 0.00000,  92: 0.00000,  91: 0.00000,
                 90: 0.00000,  89: 0.00000,  88: 0.00000,  87: 0.00000,  86: 0.00000,  85: 0.00000,  84: 0.00000,  83: 0.00000,
                 82: 0.00000,  81: 0.00000,  80: 0.00000,  79: 0.00000,  78: 0.00000,  77: 0.00000,  76: 0.00000,  75: 0.00000,
                 74: 0.00000,  73: 0.00000,  72: 0.00000,  71: 0.00000,  70: 0.00000,  69: 0.00000,  68: 0.00000,  67: 0.00000,
                 66: 0.00000,  65: 0.00000,  64: 0.00000,  63: 0.00000,  62: 0.00000,  61: 0.00000,  60: 0.00000,  59: 0.00000,
                 58: 0.00000,  57: 0.00000,  56: 0.00000,  55: 0.00000,  54: 0.00000,  53: 0.00000,  52: 0.00000,  51: 0.00000,
                 50: 0.00000,  49: 0.00000,  48: 0.00000,  47: 0.00000,  46: 0.00000,  45: 0.00000,  44: 0.00000,  43: 0.00000,
                 42: 0.00000,  41: 0.00000,  40: 0.00000,  39: 0.00000,  38: 0.00000,  37: 0.00000,  36: 0.00000,  35: 0.00000,
                 34: 0.00000,  33: 0.00000,  32: 0.00000,  31: 0.00000,  30: 0.00000,  29: 0.00000,  28: 0.00000,  27: 0.00000,
                 26: 0.00000,  25: 0.00000,  24: 0.00000,  23: 0.00000,  22: 0.00000,  21: 0.00000,  20: 0.00000,  19: 0.00000,
                 18: 0.00000,  17: 0.00000,  16: 0.00000,  15: 0.00000,  14: 0.00000,  13: 0.00000,  12: 0.00000,  11: 0.00000,
                 10: 0.00000,   9: 0.00000,   8: 0.00000,   7: 0.00000,   6: 0.00000,   5: 0.00000,   4: 0.00000,   3: 0.00000,
                  2: 0.00000,   1: 0.00000
   188 |      | 162: 0.00000, 161: 0.00000, 160: 0.00000, 159: 0.00000, 158: 0.00000, 157: 0.00000, 156: 0.00000, 155: 0.00000,
                154: 0.00000, 153: 0.00000, 152: 0.00000, 151: 0.00000, 150: 0.00000, 149: 0.00000, 148: 0.00000, 147: 0.00000,
                146: 0.00000, 145: 0.00000, 144: 0.00000, 143: 0.00000, 142: 0.00000, 141: 0.00000, 140: 0.00000, 139: 0.00000,
                138: 0.00000, 137: 0.00000, 136: 0.00000, 135: 0.00000, 134: 0.00000, 133: 0.00000, 132: 0.00000, 131: 0.00000,
                130: 0.00000, 129: 0.00000, 128: 0.00000, 127: 0.00000, 126: 0.00000, 125: 0.00000, 124: 0.00000, 123: 0.00000,
                122: 0.00000, 121: 0.00000, 120: 0.00000, 119: 0.00000, 118: 0.00000, 117: 0.00000, 116: 0.00000, 115: 0.00000,
                114: 0.00000, 113: 0.00000, 112: 0.00000, 111: 0.00000, 110: 0.00000, 109: 0.00000, 108: 0.00000, 107: 0.00000,
                106: 0.00000, 105: 0.00000, 104: 0.00000, 103: 0.00000, 102: 0.00000, 101: 0.00000, 100: 0.00000,  99: 0.00000,
                 98: 0.00000,  97: 0.00000,  96: 0.00000,  95: 0.00000,  94: 0.00000,  93: 0.00000,  92: 0.00000,  91: 0.00000,
                 90: 0.00000,  89: 0.00000,  88: 0.00000,  87: 0.00000,  86: 0.00000,  85: 0.00000,  84: 0.00000,  83: 0.00000,
                 82: 0.00000,  81: 0.00000,  80: 0.00000,  79: 0.00000,  78: 0.00000,  77: 0.00000,  76: 0.00000,  75: 0.00000,
                 74: 0.00000,  73: 0.00000,  72: 0.00000,  71: 0.00000,  70: 0.00000,  69: 0.00000,  68: 0.00000,  67: 0.00000,
                 66: 0.00000,  65: 0.00000,  64: 0.00000,  63: 0.00000,  62: 0.00000,  61: 0.00000,  60: 0.00000,  59: 0.00000,
                 58: 0.00000,  57: 0.00000,  56: 0.00000,  55: 0.00000,  54: 0.00000,  53: 0.00000,  52: 0.00000,  51: 0.00000,
                 50: 0.00000,  49: 0.00000,  48: 0.00000,  47: 0.00000,  46: 0.00000,  45: 0.00000,  44: 0.00000,  43: 0.00000,
                 42: 0.00000,  41: 0.00000,  40: 0.00000,  39: 0.00000,  38: 0.00000,  37: 0.00000,  36: 0.00000,  35: 0.00000,
                 34: 0.00000,  33: 0.00000,  32: 0.00000,  31: 0.00000,  30: 0.00000,  29: 0.00000,  28: 0.00000,  27: 0.00000,
                 26: 0.00000,  25: 0.00000,  24: 0.00000,  23: 0.00000,  22: 0.00000,  21: 0.00000,  20: 0.00000,  19: 0.00000,
                 18: 0.00000,  17: 0.00000,  16: 0.00000,  15: 0.00000,  14: 0.00000,  13: 0.00000,  12: 0.00000,  11: 0.00000,
                 10: 0.00000,   9: 0.00000,   8: 0.00000,   7: 0.00000,   6: 0.00000,   5: 0.00000,   4: 0.00000,   3: 0.00000,
                  2: 0.00000,   1: 0.00000
   189 |      | 162: 0.00000, 161: 0.00000, 160: 0.00000, 159: 0.00000, 158: 0.00000, 157: 0.00000, 156: 0.00000, 155: 0.00000,
                154: 0.00000, 153: 0.00000, 152: 0.00000, 151: 0.00000, 150: 0.00000, 149: 0.00000, 148: 0.00000, 147: 0.00000,
                146: 0.00000, 145: 0.00000, 144: 0.00000, 143: 0.00000, 142: 0.00000, 141: 0.00000, 140: 0.00000, 139: 0.00000,
                138: 0.00000, 137: 0.00000, 136: 0.00000, 135: 0.00000, 134: 0.00000, 133: 0.00000, 132: 0.00000, 131: 0.00000,
                130: 0.00000, 129: 0.00000, 128: 0.00000, 127: 0.00000, 126: 0.00000, 125: 0.00000, 124: 0.00000, 123: 0.00000,
                122: 0.00000, 121: 0.00000, 120: 0.00000, 119: 0.00000, 118: 0.00000, 117: 0.00000, 116: 0.00000, 115: 0.00000,
                114: 0.00000, 113: 0.00000, 112: 0.00000, 111: 0.00000, 110: 0.00000, 109: 0.00000, 108: 0.00000, 107: 0.00000,
                106: 0.00000, 105: 0.00000, 104: 0.00000, 103: 0.00000, 102: 0.00000, 101: 0.00000, 100: 0.00000,  99: 0.00000,
                 98: 0.00000,  97: 0.00000,  96: 0.00000,  95: 0.00000,  94: 0.00000,  93: 0.00000,  92: 0.00000,  91: 0.00000,
                 90: 0.00000,  89: 0.00000,  88: 0.00000,  87: 0.00000,  86: 0.00000,  85: 0.00000,  84: 0.00000,  83: 0.00000,
                 82: 0.00000,  81: 0.00000,  80: 0.00000,  79: 0.00000,  78: 0.00000,  77: 0.00000,  76: 0.00000,  75: 0.00000,
                 74: 0.00000,  73: 0.00000,  72: 0.00000,  71: 0.00000,  70: 0.00000,  69: 0.00000,  68: 0.00000,  67: 0.00000,
                 66: 0.00000,  65: 0.00000,  64: 0.00000,  63: 0.00000,  62: 0.00000,  61: 0.00000,  60: 0.00000,  59: 0.00000,
                 58: 0.00000,  57: 0.00000,  56: 0.00000,  55: 0.00000,  54: 0.00000,  53: 0.00000,  52: 0.00000,  51: 0.00000,
                 50: 0.00000,  49: 0.00000,  48: 0.00000,  47: 0.00000,  46: 0.00000,  45: 0.00000,  44: 0.00000,  43: 0.00000,
                 42: 0.00000,  41: 0.00000,  40: 0.00000,  39: 0.00000,  38: 0.00000,  37: 0.00000,  36: 0.00000,  35: 0.00000,
                 34: 0.00000,  33: 0.00000,  32: 0.00000,  31: 0.00000,  30: 0.00000,  29: 0.00000,  28: 0.00000,  27: 0.00000,
                 26: 0.00000,  25: 0.00000,  24: 0.00000,  23: 0.00000,  22: 0.00000,  21: 0.00000,  20: 0.00000,  19: 0.00000,
                 18: 0.00000,  17: 0.00000,  16: 0.00000,  15: 0.00000,  14: 0.00000,  13: 0.00000,  12: 0.00000,  11: 0.00000,
                 10: 0.00000,   9: 0.00000,   8: 0.00000,   7: 0.00000,   6: 0.00000,   5: 0.00000,   4: 0.00000,   3: 0.00000,
                  2: 0.00000,   1: 0.00000
   190 |      | 162: 0.00000, 161: 0.00000, 160: 0.00000, 159: 0.00000, 158: 0.00000, 157: 0.00000, 156: 0.00000, 155: 0.00000,
                154: 0.00000, 153: 0.00000, 152: 0.00000, 151: 0.00000, 150: 0.00000, 149: 0.00000, 148: 0.00000, 147: 0.00000,
                146: 0.00000, 145: 0.00000, 144: 0.00000, 143: 0.00000, 142: 0.00000, 141: 0.00000, 140: 0.00000, 139: 0.00000,
                138: 0.00000, 137: 0.00000, 136: 0.00000, 135: 0.00000, 134: 0.00000, 133: 0.00000, 132: 0.00000, 131: 0.00000,
                130: 0.00000, 129: 0.00000, 128: 0.00000, 127: 0.00000, 126: 0.00000, 125: 0.00000, 124: 0.00000, 123: 0.00000,
                122: 0.00000, 121: 0.00000, 120: 0.00000, 119: 0.00000, 118: 0.00000, 117: 0.00000, 116: 0.00000, 115: 0.00000,
                114: 0.00000, 113: 0.00000, 112: 0.00000, 111: 0.00000, 110: 0.00000, 109: 0.00000, 108: 0.00000, 107: 0.00000,
                106: 0.00000, 105: 0.00000, 104: 0.00000, 103: 0.00000, 102: 0.00000, 101: 0.00000, 100: 0.00000,  99: 0.00000,
                 98: 0.00000,  97: 0.00000,  96: 0.00000,  95: 0.00000,  94: 0.00000,  93: 0.00000,  92: 0.00000,  91: 0.00000,
                 90: 0.00000,  89: 0.00000,  88: 0.00000,  87: 0.00000,  86: 0.00000,  85: 0.00000,  84: 0.00000,  83: 0.00000,
                 82: 0.00000,  81: 0.00000,  80: 0.00000,  79: 0.00000,  78: 0.00000,  77: 0.00000,  76: 0.00000,  75: 0.00000,
                 74: 0.00000,  73: 0.00000,  72: 0.00000,  71: 0.00000,  70: 0.00000,  69: 0.00000,  68: 0.00000,  67: 0.00000,
                 66: 0.00000,  65: 0.00000,  64: 0.00000,  63: 0.00000,  62: 0.00000,  61: 0.00000,  60: 0.00000,  59: 0.00000,
                 58: 0.00000,  57: 0.00000,  56: 0.00000,  55: 0.00000,  54: 0.00000,  53: 0.00000,  52: 0.00000,  51: 0.00000,
                 50: 0.00000,  49: 0.00000,  48: 0.00000,  47: 0.00000,  46: 0.00000,  45: 0.00000,  44: 0.00000,  43: 0.00000,
                 42: 0.00000,  41: 0.00000,  40: 0.00000,  39: 0.00000,  38: 0.00000,  37: 0.00000,  36: 0.00000,  35: 0.00000,
                 34: 0.00000,  33: 0.00000,  32: 0.00000,  31: 0.00000,  30: 0.00000,  29: 0.00000,  28: 0.00000,  27: 0.00000,
                 26: 0.00000,  25: 0.00000,  24: 0.00000,  23: 0.00000,  22: 0.00000,  21: 0.00000,  20: 0.00000,  19: 0.00000,
                 18: 0.00000,  17: 0.00000,  16: 0.00000,  15: 0.00000,  14: 0.00000,  13: 0.00000,  12: 0.00000,  11: 0.00000,
                 10: 0.00000,   9: 0.00000,   8: 0.00000,   7: 0.00000,   6: 0.00000,   5: 0.00000,   4: 0.00000,   3: 0.00000,
                  2: 0.00000,   1: 0.00000
   191 |      | 162: 0.00000, 161: 0.00000, 160: 0.00000, 159: 0.00000, 158: 0.00000, 157: 0.00000, 156: 0.00000, 155: 0.00000,
                154: 0.00000, 153: 0.00000, 152: 0.00000, 151: 0.00000, 150: 0.00000, 149: 0.00000, 148: 0.00000, 147: 0.00000,
                146: 0.00000, 145: 0.00000, 144: 0.00000, 143: 0.00000, 142: 0.00000, 141: 0.00000, 140: 0.00000, 139: 0.00000,
                138: 0.00000, 137: 0.00000, 136: 0.00000, 135: 0.00000, 134: 0.00000, 133: 0.00000, 132: 0.00000, 131: 0.00000,
                130: 0.00000, 129: 0.00000, 128: 0.00000, 127: 0.00000, 126: 0.00000, 125: 0.00000, 124: 0.00000, 123: 0.00000,
                122: 0.00000, 121: 0.00000, 120: 0.00000, 119: 0.00000, 118: 0.00000, 117: 0.00000, 116: 0.00000, 115: 0.00000,
                114: 0.00000, 113: 0.00000, 112: 0.00000, 111: 0.00000, 110: 0.00000, 109: 0.00000, 108: 0.00000, 107: 0.00000,
                106: 0.00000, 105: 0.00000, 104: 0.00000, 103: 0.00000, 102: 0.00000, 101: 0.00000, 100: 0.00000,  99: 0.00000,
                 98: 0.00000,  97: 0.00000,  96: 0.00000,  95: 0.00000,  94: 0.00000,  93: 0.00000,  92: 0.00000,  91: 0.00000,
                 90: 0.00000,  89: 0.00000,  88: 0.00000,  87: 0.00000,  86: 0.00000,  85: 0.00000,  84: 0.00000,  83: 0.00000,
                 82: 0.00000,  81: 0.00000,  80: 0.00000,  79: 0.00000,  78: 0.00000,  77: 0.00000,  76: 0.00000,  75: 0.00000,
                 74: 0.00000,  73: 0.00000,  72: 0.00000,  71: 0.00000,  70: 0.00000,  69: 0.00000,  68: 0.00000,  67: 0.00000,
                 66: 0.00000,  65: 0.00000,  64: 0.00000,  63: 0.00000,  62: 0.00000,  61: 0.00000,  60: 0.00000,  59: 0.00000,
                 58: 0.00000,  57: 0.00000,  56: 0.00000,  55: 0.00000,  54: 0.00000,  53: 0.00000,  52: 0.00000,  51: 0.00000,
                 50: 0.00000,  49: 0.00000,  48: 0.00000,  47: 0.00000,  46: 0.00000,  45: 0.00000,  44: 0.00000,  43: 0.00000,
                 42: 0.00000,  41: 0.00000,  40: 0.00000,  39: 0.00000,  38: 0.00000,  37: 0.00000,  36: 0.00000,  35: 0.00000,
                 34: 0.00000,  33: 0.00000,  32: 0.00000,  31: 0.00000,  30: 0.00000,  29: 0.00000,  28: 0.00000,  27: 0.00000,
                 26: 0.00000,  25: 0.00000,  24: 0.00000,  23: 0.00000,  22: 0.00000,  21: 0.00000,  20: 0.00000,  19: 0.00000,
                 18: 0.00000,  17: 0.00000,  16: 0.00000,  15: 0.00000,  14: 0.00000,  13: 0.00000,  12: 0.00000,  11: 0.00000,
                 10: 0.00000,   9: 0.00000,   8: 0.00000,   7: 0.00000,   6: 0.00000,   5: 0.00000,   4: 0.00000,   3: 0.00000,
                  2: 0.00000,   1: 0.00000
   192 |      | 162: 0.00000, 161: 0.00000, 160: 0.00000, 159: 0.00000, 158: 0.00000, 157: 0.00000, 156: 0.00000, 155: 0.00000,
                154: 0.00000, 153: 0.00000, 152: 0.00000, 151: 0.00000, 150: 0.00000, 149: 0.00000, 148: 0.00000, 147: 0.00000,
                146: 0.00000, 145: 0.00000, 144: 0.00000, 143: 0.00000, 142: 0.00000, 141: 0.00000, 140: 0.00000, 139: 0.00000,
                138: 0.00000, 137: 0.00000, 136: 0.00000, 135: 0.00000, 134: 0.00000, 133: 0.00000, 132: 0.00000, 131: 0.00000,
                130: 0.00000, 129: 0.00000, 128: 0.00000, 127: 0.00000, 126: 0.00000, 125: 0.00000, 124: 0.00000, 123: 0.00000,
                122: 0.00000, 121: 0.00000, 120: 0.00000, 119: 0.00000, 118: 0.00000, 117: 0.00000, 116: 0.00000, 115: 0.00000,
                114: 0.00000, 113: 0.00000, 112: 0.00000, 111: 0.00000, 110: 0.00000, 109: 0.00000, 108: 0.00000, 107: 0.00000,
                106: 0.00000, 105: 0.00000, 104: 0.00000, 103: 0.00000, 102: 0.00000, 101: 0.00000, 100: 0.00000,  99: 0.00000,
                 98: 0.00000,  97: 0.00000,  96: 0.00000,  95: 0.00000,  94: 0.00000,  93: 0.00000,  92: 0.00000,  91: 0.00000,
                 90: 0.00000,  89: 0.00000,  88: 0.00000,  87: 0.00000,  86: 0.00000,  85: 0.00000,  84: 0.00000,  83: 0.00000,
                 82: 0.00000,  81: 0.00000,  80: 0.00000,  79: 0.00000,  78: 0.00000,  77: 0.00000,  76: 0.00000,  75: 0.00000,
                 74: 0.00000,  73: 0.00000,  72: 0.00000,  71: 0.00000,  70: 0.00000,  69: 0.00000,  68: 0.00000,  67: 0.00000,
                 66: 0.00000,  65: 0.00000,  64: 0.00000,  63: 0.00000,  62: 0.00000,  61: 0.00000,  60: 0.00000,  59: 0.00000,
                 58: 0.00000,  57: 0.00000,  56: 0.00000,  55: 0.00000,  54: 0.00000,  53: 0.00000,  52: 0.00000,  51: 0.00000,
                 50: 0.00000,  49: 0.00000,  48: 0.00000,  47: 0.00000,  46: 0.00000,  45: 0.00000,  44: 0.00000,  43: 0.00000,
                 42: 0.00000,  41: 0.00000,  40: 0.00000,  39: 0.00000,  38: 0.00000,  37: 0.00000,  36: 0.00000,  35: 0.00000,
                 34: 0.00000,  33: 0.00000,  32: 0.00000,  31: 0.00000,  30: 0.00000,  29: 0.00000,  28: 0.00000,  27: 0.00000,
                 26: 0.00000,  25: 0.00000,  24: 0.00000,  23: 0.00000,  22: 0.00000,  21: 0.00000,  20: 0.00000,  19: 0.00000,
                 18: 0.00000,  17: 0.00000,  16: 0.00000,  15: 0.00000,  14: 0.00000,  13: 0.00000,  12: 0.00000,  11: 0.00000,
                 10: 0.00000,   9: 0.00000,   8: 0.00000,   7: 0.00000,   6: 0.00000,   5: 0.00000,   4: 0.00000,   3: 0.00000,
                  2: 0.00000,   1: 0.00000
   193 |      | 162: 0.00000, 161: 0.00000, 160: 0.00000, 159: 0.00000, 158: 0.00000, 157: 0.00000, 156: 0.00000, 155: 0.00000,
                154: 0.00000, 153: 0.00000, 152: 0.00000, 151: 0.00000, 150: 0.00000, 149: 0.00000, 148: 0.00000, 147: 0.00000,
                146: 0.00000, 145: 0.00000, 144: 0.00000, 143: 0.00000, 142: 0.00000, 141: 0.00000, 140: 0.00000, 139: 0.00000,
                138: 0.00000, 137: 0.00000, 136: 0.00000, 135: 0.00000, 134: 0.00000, 133: 0.00000, 132: 0.00000, 131: 0.00000,
                130: 0.00000, 129: 0.00000, 128: 0.00000, 127: 0.00000, 126: 0.00000, 125: 0.00000, 124: 0.00000, 123: 0.00000,
                122: 0.00000, 121: 0.00000, 120: 0.00000, 119: 0.00000, 118: 0.00000, 117: 0.00000, 116: 0.00000, 115: 0.00000,
                114: 0.00000, 113: 0.00000, 112: 0.00000, 111: 0.00000, 110: 0.00000, 109: 0.00000, 108: 0.00000, 107: 0.00000,
                106: 0.00000, 105: 0.00000, 104: 0.00000, 103: 0.00000, 102: 0.00000, 101: 0.00000, 100: 0.00000,  99: 0.00000,
                 98: 0.00000,  97: 0.00000,  96: 0.00000,  95: 0.00000,  94: 0.00000,  93: 0.00000,  92: 0.00000,  91: 0.00000,
                 90: 0.00000,  89: 0.00000,  88: 0.00000,  87: 0.00000,  86: 0.00000,  85: 0.00000,  84: 0.00000,  83: 0.00000,
                 82: 0.00000,  81: 0.00000,  80: 0.00000,  79: 0.00000,  78: 0.00000,  77: 0.00000,  76: 0.00000,  75: 0.00000,
                 74: 0.00000,  73: 0.00000,  72: 0.00000,  71: 0.00000,  70: 0.00000,  69: 0.00000,  68: 0.00000,  67: 0.00000,
                 66: 0.00000,  65: 0.00000,  64: 0.00000,  63: 0.00000,  62: 0.00000,  61: 0.00000,  60: 0.00000,  59: 0.00000,
                 58: 0.00000,  57: 0.00000,  56: 0.00000,  55: 0.00000,  54: 0.00000,  53: 0.00000,  52: 0.00000,  51: 0.00000,
                 50: 0.00000,  49: 0.00000,  48: 0.00000,  47: 0.00000,  46: 0.00000,  45: 0.00000,  44: 0.00000,  43: 0.00000,
                 42: 0.00000,  41: 0.00000,  40: 0.00000,  39: 0.00000,  38: 0.00000,  37: 0.00000,  36: 0.00000,  35: 0.00000,
                 34: 0.00000,  33: 0.00000,  32: 0.00000,  31: 0.00000,  30: 0.00000,  29: 0.00000,  28: 0.00000,  27: 0.00000,
                 26: 0.00000,  25: 0.00000,  24: 0.00000,  23: 0.00000,  22: 0.00000,  21: 0.00000,  20: 0.00000,  19: 0.00000,
                 18: 0.00000,  17: 0.00000,  16: 0.00000,  15: 0.00000,  14: 0.00000,  13: 0.00000,  12: 0.00000,  11: 0.00000,
                 10: 0.00000,   9: 0.00000,   8: 0.00000,   7: 0.00000,   6: 0.00000,   5: 0.00000,   4: 0.00000,   3: 0.00000,
                  2: 0.00000,   1: 0.00000
   194 |      | 162: 0.00000, 161: 0.00000, 160: 0.00000, 159: 0.00000, 158: 0.00000, 157: 0.00000, 156: 0.00000, 155: 0.00000,
                154: 0.00000, 153: 0.00000, 152: 0.00000, 151: 0.00000, 150: 0.00000, 149: 0.00000, 148: 0.00000, 147: 0.00000,
                146: 0.00000, 145: 0.00000, 144: 0.00000, 143: 0.00000, 142: 0.00000, 141: 0.00000, 140: 0.00000, 139: 0.00000,
                138: 0.00000, 137: 0.00000, 136: 0.00000, 135: 0.00000, 134: 0.00000, 133: 0.00000, 132: 0.00000, 131: 0.00000,
                130: 0.00000, 129: 0.00000, 128: 0.00000, 127: 0.00000, 126: 0.00000, 125: 0.00000, 124: 0.00000, 123: 0.00000,
                122: 0.00000, 121: 0.00000, 120: 0.00000, 119: 0.00000, 118: 0.00000, 117: 0.00000, 116: 0.00000, 115: 0.00000,
                114: 0.00000, 113: 0.00000, 112: 0.00000, 111: 0.00000, 110: 0.00000, 109: 0.00000, 108: 0.00000, 107: 0.00000,
                106: 0.00000, 105: 0.00000, 104: 0.00000, 103: 0.00000, 102: 0.00000, 101: 0.00000, 100: 0.00000,  99: 0.00000,
                 98: 0.00000,  97: 0.00000,  96: 0.00000,  95: 0.00000,  94: 0.00000,  93: 0.00000,  92: 0.00000,  91: 0.00000,
                 90: 0.00000,  89: 0.00000,  88: 0.00000,  87: 0.00000,  86: 0.00000,  85: 0.00000,  84: 0.00000,  83: 0.00000,
                 82: 0.00000,  81: 0.00000,  80: 0.00000,  79: 0.00000,  78: 0.00000,  77: 0.00000,  76: 0.00000,  75: 0.00000,
                 74: 0.00000,  73: 0.00000,  72: 0.00000,  71: 0.00000,  70: 0.00000,  69: 0.00000,  68: 0.00000,  67: 0.00000,
                 66: 0.00000,  65: 0.00000,  64: 0.00000,  63: 0.00000,  62: 0.00000,  61: 0.00000,  60: 0.00000,  59: 0.00000,
                 58: 0.00000,  57: 0.00000,  56: 0.00000,  55: 0.00000,  54: 0.00000,  53: 0.00000,  52: 0.00000,  51: 0.00000,
                 50: 0.00000,  49: 0.00000,  48: 0.00000,  47: 0.00000,  46: 0.00000,  45: 0.00000,  44: 0.00000,  43: 0.00000,
                 42: 0.00000,  41: 0.00000,  40: 0.00000,  39: 0.00000,  38: 0.00000,  37: 0.00000,  36: 0.00000,  35: 0.00000,
                 34: 0.00000,  33: 0.00000,  32: 0.00000,  31: 0.00000,  30: 0.00000,  29: 0.00000,  28: 0.00000,  27: 0.00000,
                 26: 0.00000,  25: 0.00000,  24: 0.00000,  23: 0.00000,  22: 0.00000,  21: 0.00000,  20: 0.00000,  19: 0.00000,
                 18: 0.00000,  17: 0.00000,  16: 0.00000,  15: 0.00000,  14: 0.00000,  13: 0.00000,  12: 0.00000,  11: 0.00000,
                 10: 0.00000,   9: 0.00000,   8: 0.00000,   7: 0.00000,   6: 0.00000,   5: 0.00000,   4: 0.00000,   3: 0.00000,
                  2: 0.00000,   1: 0.00000
   195 |      | 162: 0.00000, 161: 0.00000, 160: 0.00000, 159: 0.00000, 158: 0.00000, 157: 0.00000, 156: 0.00000, 155: 0.00000,
                154: 0.00000, 153: 0.00000, 152: 0.00000, 151: 0.00000, 150: 0.00000, 149: 0.00000, 148: 0.00000, 147: 0.00000,
                146: 0.00000, 145: 0.00000, 144: 0.00000, 143: 0.00000, 142: 0.00000, 141: 0.00000, 140: 0.00000, 139: 0.00000,
                138: 0.00000, 137: 0.00000, 136: 0.00000, 135: 0.00000, 134: 0.00000, 133: 0.00000, 132: 0.00000, 131: 0.00000,
                130: 0.00000, 129: 0.00000, 128: 0.00000, 127: 0.00000, 126: 0.00000, 125: 0.00000, 124: 0.00000, 123: 0.00000,
                122: 0.00000, 121: 0.00000, 120: 0.00000, 119: 0.00000, 118: 0.00000, 117: 0.00000, 116: 0.00000, 115: 0.00000,
