SNNS network definition file V1.4-3D
generated at Thu Sep 20 15:00:53 2007

network name : default
source files :
no. of units : 50
no. of connections : 600
no. of unit types : 0
no. of site types : 0


learning function : Std_Backpropagation
update function   : Topological_Order


unit default section :

act      | bias     | st | subnet | layer | act func     | out func
---------|----------|----|--------|-------|--------------|-------------
 0.00000 |  0.00000 | h  |      0 |     1 | Act_Logistic | Out_Identity 
---------|----------|----|--------|-------|--------------|-------------


unit definition section :

no. | typeName | unitName | act      | bias     | st | position | act func | out func | sites
----|----------|----------|----------|----------|----|----------|----------|----------|-------
  1 |          | N11      |  0.00000 |  0.00000 | i  |  1, 1, 1 |||
  2 |          | N12      |  0.00000 |  0.00000 | i  |  2, 1, 1 |||
  3 |          | N13      |  0.00000 |  0.00000 | i  |  3, 1, 1 |||
  4 |          | N14      |  0.00000 |  0.00000 | i  |  4, 1, 1 |||
  5 |          | N15      |  0.00000 |  0.00000 | i  |  5, 1, 1 |||
  6 |          | N21      |  0.00000 |  0.00000 | i  |  1, 2, 1 |||
  7 |          | N22      |  0.00000 |  0.00000 | i  |  2, 2, 1 |||
  8 |          | N23      |  0.00000 |  0.00000 | i  |  3, 2, 1 |||
  9 |          | N24      |  0.00000 |  0.00000 | i  |  4, 2, 1 |||
 10 |          | N25      |  0.00000 |  0.00000 | i  |  5, 2, 1 |||
 11 |          | N31      |  0.00000 |  0.00000 | i  |  1, 3, 1 |||
 12 |          | N32      |  0.00000 |  0.00000 | i  |  2, 3, 1 |||
 13 |          | N33      |  0.00000 |  0.00000 | i  |  3, 3, 1 |||
 14 |          | N34      |  0.00000 |  0.00000 | i  |  4, 3, 1 |||
 15 |          | N35      |  0.00000 |  0.00000 | i  |  5, 3, 1 |||
 16 |          | N41      |  0.00000 |  0.00000 | i  |  1, 4, 1 |||
 17 |          | N42      |  0.00000 |  0.00000 | i  |  2, 4, 1 |||
 18 |          | N43      |  0.00000 |  0.00000 | i  |  3, 4, 1 |||
 19 |          | N44      |  0.00000 |  0.00000 | i  |  4, 4, 1 |||
 20 |          | N45      |  0.00000 |  0.00000 | i  |  5, 4, 1 |||
 21 |          | N51      |  0.00000 |  0.00000 | i  |  1, 5, 1 |||
 22 |          | N52      |  0.00000 |  0.00000 | i  |  2, 5, 1 |||
 23 |          | N53      |  0.00000 |  0.00000 | i  |  3, 5, 1 |||
 24 |          | N54      |  0.00000 |  0.00000 | i  |  4, 5, 1 |||
 25 |          | N55      |  0.00000 |  0.00000 | i  |  5, 5, 1 |||
 26 |          | NI       |  0.00000 |  0.00000 | h  |  9, 1, 1 |||
 27 |          | NI       |  0.00000 |  0.00000 | h  | 10, 1, 1 |||
 28 |          | NI       |  0.00000 |  0.00000 | h  |  9, 2, 1 |||
 29 |          | NI       |  0.00000 |  0.00000 | h  | 10, 2, 1 |||
 30 |          | NI       |  0.00000 |  0.00000 | h  |  9, 3, 1 |||
 31 |          | NI       |  0.00000 |  0.00000 | h  | 10, 3, 1 |||
 32 |          | NI       |  0.00000 |  0.00000 | h  |  9, 4, 1 |||
 33 |          | NI       |  0.00000 |  0.00000 | h  | 10, 4, 1 |||
 34 |          | NI       |  0.00000 |  0.00000 | h  |  9, 5, 1 |||
 35 |          | NI       |  0.00000 |  0.00000 | h  | 10, 5, 1 |||
 36 |          | NI       |  0.00000 |  0.00000 | h  |  9, 6, 1 |||
 37 |          | NI       |  0.00000 |  0.00000 | h  | 10, 6, 1 |||
 38 |          | NI       |  0.00000 |  0.00000 | h  |  9, 7, 1 |||
 39 |          | NI       |  0.00000 |  0.00000 | h  | 10, 7, 1 |||
 40 |          | NI       |  0.00000 |  0.00000 | h  |  9, 8, 1 |||
 41 |          | NI       |  0.00000 |  0.00000 | h  | 10, 8, 1 |||
 42 |          | NI       |  0.00000 |  0.00000 | h  |  9, 9, 1 |||
 43 |          | NI       |  0.00000 |  0.00000 | h  | 10, 9, 1 |||
 44 |          | NI       |  0.00000 |  0.00000 | h  |  9,10, 1 |||
 45 |          | NI       |  0.00000 |  0.00000 | h  | 10,10, 1 |||
 46 |          | A        |  0.00000 |  0.00000 | o  | 15, 1, 1 |||
 47 |          | B        |  0.00000 |  0.00000 | o  | 15, 2, 1 |||
 48 |          | C        |  0.00000 |  0.00000 | o  | 15, 3, 1 |||
 49 |          | D        |  0.00000 |  0.00000 | o  | 15, 4, 1 |||
 50 |          | E        |  0.00000 |  0.00000 | o  | 15, 5, 1 |||
----|----------|----------|----------|----------|----|----------|----------|----------|-------


connection definition section :

target | site | source:weight
-------|------|---------------------------------------------------------------------------------------------------------------------
    26 |      |  1: 0.00000,  2: 0.00000,  3: 0.00000,  4: 0.00000,  5: 0.00000,  6: 0.00000,  7: 0.00000,  8: 0.00000,  9: 0.00000,
                10: 0.00000, 11: 0.00000, 12: 0.00000, 13: 0.00000, 14: 0.00000, 15: 0.00000, 16: 0.00000, 17: 0.00000, 18: 0.00000,
                19: 0.00000, 20: 0.00000, 21: 0.00000, 22: 0.00000, 23: 0.00000, 24: 0.00000, 25: 0.00000
    27 |      |  1: 0.00000,  2: 0.00000,  3: 0.00000,  4: 0.00000,  5: 0.00000,  6: 0.00000,  7: 0.00000,  8: 0.00000,  9: 0.00000,
                10: 0.00000, 11: 0.00000, 12: 0.00000, 13: 0.00000, 14: 0.00000, 15: 0.00000, 16: 0.00000, 17: 0.00000, 18: 0.00000,
                19: 0.00000, 20: 0.00000, 21: 0.00000, 22: 0.00000, 23: 0.00000, 24: 0.00000, 25: 0.00000
    28 |      |  1: 0.00000,  2: 0.00000,  3: 0.00000,  4: 0.00000,  5: 0.00000,  6: 0.00000,  7: 0.00000,  8: 0.00000,  9: 0.00000,
                10: 0.00000, 11: 0.00000, 12: 0.00000, 13: 0.00000, 14: 0.00000, 15: 0.00000, 16: 0.00000, 17: 0.00000, 18: 0.00000,
                19: 0.00000, 20: 0.00000, 21: 0.00000, 22: 0.00000, 23: 0.00000, 24: 0.00000, 25: 0.00000
    29 |      |  1: 0.00000,  2: 0.00000,  3: 0.00000,  4: 0.00000,  5: 0.00000,  6: 0.00000,  7: 0.00000,  8: 0.00000,  9: 0.00000,
                10: 0.00000, 11: 0.00000, 12: 0.00000, 13: 0.00000, 14: 0.00000, 15: 0.00000, 16: 0.00000, 17: 0.00000, 18: 0.00000,
                19: 0.00000, 20: 0.00000, 21: 0.00000, 22: 0.00000, 23: 0.00000, 24: 0.00000, 25: 0.00000
    30 |      |  1: 0.00000,  2: 0.00000,  3: 0.00000,  4: 0.00000,  5: 0.00000,  6: 0.00000,  7: 0.00000,  8: 0.00000,  9: 0.00000,
                10: 0.00000, 11: 0.00000, 12: 0.00000, 13: 0.00000, 14: 0.00000, 15: 0.00000, 16: 0.00000, 17: 0.00000, 18: 0.00000,
                19: 0.00000, 20: 0.00000, 21: 0.00000, 22: 0.00000, 23: 0.00000, 24: 0.00000, 25: 0.00000
    31 |      |  1: 0.00000,  2: 0.00000,  3: 0.00000,  4: 0.00000,  5: 0.00000,  6: 0.00000,  7: 0.00000,  8: 0.00000,  9: 0.00000,
                10: 0.00000, 11: 0.00000, 12: 0.00000, 13: 0.00000, 14: 0.00000, 15: 0.00000, 16: 0.00000, 17: 0.00000, 18: 0.00000,
                19: 0.00000, 20: 0.00000, 21: 0.00000, 22: 0.00000, 23: 0.00000, 24: 0.00000, 25: 0.00000
    32 |      |  1: 0.00000,  2: 0.00000,  3: 0.00000,  4: 0.00000,  5: 0.00000,  6: 0.00000,  7: 0.00000,  8: 0.00000,  9: 0.00000,
                10: 0.00000, 11: 0.00000, 12: 0.00000, 13: 0.00000, 14: 0.00000, 15: 0.00000, 16: 0.00000, 17: 0.00000, 18: 0.00000,
                19: 0.00000, 20: 0.00000, 21: 0.00000, 22: 0.00000, 23: 0.00000, 24: 0.00000, 25: 0.00000
    33 |      |  1: 0.00000,  2: 0.00000,  3: 0.00000,  4: 0.00000,  5: 0.00000,  6: 0.00000,  7: 0.00000,  8: 0.00000,  9: 0.00000,
                10: 0.00000, 11: 0.00000, 12: 0.00000, 13: 0.00000, 14: 0.00000, 15: 0.00000, 16: 0.00000, 17: 0.00000, 18: 0.00000,
                19: 0.00000, 20: 0.00000, 21: 0.00000, 22: 0.00000, 23: 0.00000, 24: 0.00000, 25: 0.00000
    34 |      |  1: 0.00000,  2: 0.00000,  3: 0.00000,  4: 0.00000,  5: 0.00000,  6: 0.00000,  7: 0.00000,  8: 0.00000,  9: 0.00000,
                10: 0.00000, 11: 0.00000, 12: 0.00000, 13: 0.00000, 14: 0.00000, 15: 0.00000, 16: 0.00000, 17: 0.00000, 18: 0.00000,
                19: 0.00000, 20: 0.00000, 21: 0.00000, 22: 0.00000, 23: 0.00000, 24: 0.00000, 25: 0.00000
    35 |      |  1: 0.00000,  2: 0.00000,  3: 0.00000,  4: 0.00000,  5: 0.00000,  6: 0.00000,  7: 0.00000,  8: 0.00000,  9: 0.00000,
                10: 0.00000, 11: 0.00000, 12: 0.00000, 13: 0.00000, 14: 0.00000, 15: 0.00000, 16: 0.00000, 17: 0.00000, 18: 0.00000,
                19: 0.00000, 20: 0.00000, 21: 0.00000, 22: 0.00000, 23: 0.00000, 24: 0.00000, 25: 0.00000
    36 |      |  1: 0.00000,  2: 0.00000,  3: 0.00000,  4: 0.00000,  5: 0.00000,  6: 0.00000,  7: 0.00000,  8: 0.00000,  9: 0.00000,
                10: 0.00000, 11: 0.00000, 12: 0.00000, 13: 0.00000, 14: 0.00000, 15: 0.00000, 16: 0.00000, 17: 0.00000, 18: 0.00000,
                19: 0.00000, 20: 0.00000, 21: 0.00000, 22: 0.00000, 23: 0.00000, 24: 0.00000, 25: 0.00000
    37 |      |  1: 0.00000,  2: 0.00000,  3: 0.00000,  4: 0.00000,  5: 0.00000,  6: 0.00000,  7: 0.00000,  8: 0.00000,  9: 0.00000,
                10: 0.00000, 11: 0.00000, 12: 0.00000, 13: 0.00000, 14: 0.00000, 15: 0.00000, 16: 0.00000, 17: 0.00000, 18: 0.00000,
                19: 0.00000, 20: 0.00000, 21: 0.00000, 22: 0.00000, 23: 0.00000, 24: 0.00000, 25: 0.00000
    38 |      |  1: 0.00000,  2: 0.00000,  3: 0.00000,  4: 0.00000,  5: 0.00000,  6: 0.00000,  7: 0.00000,  8: 0.00000,  9: 0.00000,
                10: 0.00000, 11: 0.00000, 12: 0.00000, 13: 0.00000, 14: 0.00000, 15: 0.00000, 16: 0.00000, 17: 0.00000, 18: 0.00000,
                19: 0.00000, 20: 0.00000, 21: 0.00000, 22: 0.00000, 23: 0.00000, 24: 0.00000, 25: 0.00000
    39 |      |  1: 0.00000,  2: 0.00000,  3: 0.00000,  4: 0.00000,  5: 0.00000,  6: 0.00000,  7: 0.00000,  8: 0.00000,  9: 0.00000,
                10: 0.00000, 11: 0.00000, 12: 0.00000, 13: 0.00000, 14: 0.00000, 15: 0.00000, 16: 0.00000, 17: 0.00000, 18: 0.00000,
                19: 0.00000, 20: 0.00000, 21: 0.00000, 22: 0.00000, 23: 0.00000, 24: 0.00000, 25: 0.00000
    40 |      |  1: 0.00000,  2: 0.00000,  3: 0.00000,  4: 0.00000,  5: 0.00000,  6: 0.00000,  7: 0.00000,  8: 0.00000,  9: 0.00000,
                10: 0.00000, 11: 0.00000, 12: 0.00000, 13: 0.00000, 14: 0.00000, 15: 0.00000, 16: 0.00000, 17: 0.00000, 18: 0.00000,
                19: 0.00000, 20: 0.00000, 21: 0.00000, 22: 0.00000, 23: 0.00000, 24: 0.00000, 25: 0.00000
    41 |      |  1: 0.00000,  2: 0.00000,  3: 0.00000,  4: 0.00000,  5: 0.00000,  6: 0.00000,  7: 0.00000,  8: 0.00000,  9: 0.00000,
                10: 0.00000, 11: 0.00000, 12: 0.00000, 13: 0.00000, 14: 0.00000, 15: 0.00000, 16: 0.00000, 17: 0.00000, 18: 0.00000,
                19: 0.00000, 20: 0.00000, 21: 0.00000, 22: 0.00000, 23: 0.00000, 24: 0.00000, 25: 0.00000
    42 |      |  1: 0.00000,  2: 0.00000,  3: 0.00000,  4: 0.00000,  5: 0.00000,  6: 0.00000,  7: 0.00000,  8: 0.00000,  9: 0.00000,
                10: 0.00000, 11: 0.00000, 12: 0.00000, 13: 0.00000, 14: 0.00000, 15: 0.00000, 16: 0.00000, 17: 0.00000, 18: 0.00000,
                19: 0.00000, 20: 0.00000, 21: 0.00000, 22: 0.00000, 23: 0.00000, 24: 0.00000, 25: 0.00000
    43 |      |  1: 0.00000,  2: 0.00000,  3: 0.00000,  4: 0.00000,  5: 0.00000,  6: 0.00000,  7: 0.00000,  8: 0.00000,  9: 0.00000,
                10: 0.00000, 11: 0.00000, 12: 0.00000, 13: 0.00000, 14: 0.00000, 15: 0.00000, 16: 0.00000, 17: 0.00000, 18: 0.00000,
                19: 0.00000, 20: 0.00000, 21: 0.00000, 22: 0.00000, 23: 0.00000, 24: 0.00000, 25: 0.00000
    44 |      |  1: 0.00000,  2: 0.00000,  3: 0.00000,  4: 0.00000,  5: 0.00000,  6: 0.00000,  7: 0.00000,  8: 0.00000,  9: 0.00000,
                10: 0.00000, 11: 0.00000, 12: 0.00000, 13: 0.00000, 14: 0.00000, 15: 0.00000, 16: 0.00000, 17: 0.00000, 18: 0.00000,
                19: 0.00000, 20: 0.00000, 21: 0.00000, 22: 0.00000, 23: 0.00000, 24: 0.00000, 25: 0.00000
    45 |      |  1: 0.00000,  2: 0.00000,  3: 0.00000,  4: 0.00000,  5: 0.00000,  6: 0.00000,  7: 0.00000,  8: 0.00000,  9: 0.00000,
                10: 0.00000, 11: 0.00000, 12: 0.00000, 13: 0.00000, 14: 0.00000, 15: 0.00000, 16: 0.00000, 17: 0.00000, 18: 0.00000,
                19: 0.00000, 20: 0.00000, 21: 0.00000, 22: 0.00000, 23: 0.00000, 24: 0.00000, 25: 0.00000
    46 |      | 26: 0.00000, 27: 0.00000, 28: 0.00000, 29: 0.00000, 30: 0.00000, 31: 0.00000, 32: 0.00000, 33: 0.00000, 34: 0.00000,
                35: 0.00000, 36: 0.00000, 37: 0.00000, 38: 0.00000, 39: 0.00000, 40: 0.00000, 41: 0.00000, 42: 0.00000, 43: 0.00000,
                44: 0.00000, 45: 0.00000
    47 |      | 26: 0.00000, 27: 0.00000, 28: 0.00000, 29: 0.00000, 30: 0.00000, 31: 0.00000, 32: 0.00000, 33: 0.00000, 34: 0.00000,
                35: 0.00000, 36: 0.00000, 37: 0.00000, 38: 0.00000, 39: 0.00000, 40: 0.00000, 41: 0.00000, 42: 0.00000, 43: 0.00000,
                44: 0.00000, 45: 0.00000
    48 |      | 26: 0.00000, 27: 0.00000, 28: 0.00000, 29: 0.00000, 30: 0.00000, 31: 0.00000, 32: 0.00000, 33: 0.00000, 34: 0.00000,
                35: 0.00000, 36: 0.00000, 37: 0.00000, 38: 0.00000, 39: 0.00000, 40: 0.00000, 41: 0.00000, 42: 0.00000, 43: 0.00000,
                44: 0.00000, 45: 0.00000
    49 |      | 26: 0.00000, 27: 0.00000, 28: 0.00000, 29: 0.00000, 30: 0.00000, 31: 0.00000, 32: 0.00000, 33: 0.00000, 34: 0.00000,
                35: 0.00000, 36: 0.00000, 37: 0.00000, 38: 0.00000, 39: 0.00000, 40: 0.00000, 41: 0.00000, 42: 0.00000, 43: 0.00000,
                44: 0.00000, 45: 0.00000
    50 |      | 26: 0.00000, 27: 0.00000, 28: 0.00000, 29: 0.00000, 30: 0.00000, 31: 0.00000, 32: 0.00000, 33: 0.00000, 34: 0.00000,
                35: 0.00000, 36: 0.00000, 37: 0.00000, 38: 0.00000, 39: 0.00000, 40: 0.00000, 41: 0.00000, 42: 0.00000, 43: 0.00000,
                44: 0.00000, 45: 0.00000
-------|------|---------------------------------------------------------------------------------------------------------------------


layer definition section :

layer | unitNo.
------|----------------------------------------------------------------------------------------------------------------------------
    2 | 26, 27, 28, 29, 30, 31, 32, 33, 34, 35, 36, 37, 38, 39, 40, 41, 42, 43, 44, 45
    3 | 46, 47, 48, 49, 50
------|----------------------------------------------------------------------------------------------------------------------------
