SNNS network definition file V1.4-3D
generated at Thu Sep 20 16:17:03 2007

network name : default
source files :
no. of units : 40
no. of connections : 300
no. of unit types : 0
no. of site types : 0


learning function : Std_Backpropagation
update function   : Topological_Order


unit default section :

act      | bias     | st | subnet | layer | act func     | out func
---------|----------|----|--------|-------|--------------|-------------
 0.00000 |  0.00000 | h  |      0 |     1 | Act_Logistic | Out_Identity 
---------|----------|----|--------|-------|--------------|-------------


unit definition section :

no. | typeName | unitName | act      | bias     | st | position | act func     | out func | sites
----|----------|----------|----------|----------|----|----------|--------------|----------|-------
  1 |          | u11      |  0.00000 |  0.00000 | i  |  1, 1, 1 | Act_Identity |          | 
  2 |          | u12      |  0.00000 |  0.00000 | i  |  2, 1, 1 | Act_Identity |          | 
  3 |          | u13      |  0.00000 |  0.00000 | i  |  3, 1, 1 | Act_Identity |          | 
  4 |          | u14      |  0.00000 |  0.00000 | i  |  4, 1, 1 | Act_Identity |          | 
  5 |          | u15      |  0.00000 |  0.00000 | i  |  5, 1, 1 | Act_Identity |          | 
  6 |          | u21      |  0.00000 |  0.00000 | i  |  1, 2, 1 | Act_Identity |          | 
  7 |          | u22      |  0.00000 |  0.00000 | i  |  2, 2, 1 | Act_Identity |          | 
  8 |          | u23      |  0.00000 |  0.00000 | i  |  3, 2, 1 | Act_Identity |          | 
  9 |          | u24      |  0.00000 |  0.00000 | i  |  4, 2, 1 | Act_Identity |          | 
 10 |          | u25      |  0.00000 |  0.00000 | i  |  5, 2, 1 | Act_Identity |          | 
 11 |          | u31      |  0.00000 |  0.00000 | i  |  1, 3, 1 | Act_Identity |          | 
 12 |          | u32      |  0.00000 |  0.00000 | i  |  2, 3, 1 | Act_Identity |          | 
 13 |          | u33      |  0.00000 |  0.00000 | i  |  3, 3, 1 | Act_Identity |          | 
 14 |          | u34      |  0.00000 |  0.00000 | i  |  4, 3, 1 | Act_Identity |          | 
 15 |          | u35      |  0.00000 |  0.00000 | i  |  5, 3, 1 | Act_Identity |          | 
 16 |          | u41      |  0.00000 |  0.00000 | i  |  1, 4, 1 | Act_Identity |          | 
 17 |          | u42      |  0.00000 |  0.00000 | i  |  2, 4, 1 | Act_Identity |          | 
 18 |          | u43      |  0.00000 |  0.00000 | i  |  3, 4, 1 | Act_Identity |          | 
 19 |          | u44      |  0.00000 |  0.00000 | i  |  4, 4, 1 | Act_Identity |          | 
 20 |          | u45      |  0.00000 |  0.00000 | i  |  5, 4, 1 | Act_Identity |          | 
 21 |          | u51      |  0.00000 |  0.00000 | i  |  1, 5, 1 | Act_Identity |          | 
 22 |          | u52      |  0.00000 |  0.00000 | i  |  2, 5, 1 | Act_Identity |          | 
 23 |          | u53      |  0.00000 |  0.00000 | i  |  3, 5, 1 | Act_Identity |          | 
 24 |          | u54      |  0.00000 |  0.00000 | i  |  4, 5, 1 | Act_Identity |          | 
 25 |          | u55      |  0.00000 |  0.00000 | i  |  5, 5, 1 | Act_Identity |          | 
 26 |          | h1       |  0.00000 |  0.00000 | h  |  8, 1, 1 |||
 27 |          | h2       |  0.00000 |  0.00000 | h  |  8, 2, 1 |||
 28 |          | h3       |  0.00000 |  0.00000 | h  |  8, 3, 1 |||
 29 |          | h4       |  0.00000 |  0.00000 | h  |  8, 4, 1 |||
 30 |          | h5       |  0.00000 |  0.00000 | h  |  8, 5, 1 |||
 31 |          | h6       |  0.00000 |  0.00000 | h  |  8, 6, 1 |||
 32 |          | h7       |  0.00000 |  0.00000 | h  |  8, 7, 1 |||
 33 |          | h8       |  0.00000 |  0.00000 | h  |  8, 8, 1 |||
 34 |          | h9       |  0.00000 |  0.00000 | h  |  8, 9, 1 |||
 35 |          | h10      |  0.00000 |  0.00000 | h  |  8,10, 1 |||
 36 |          | A        |  0.00000 |  0.00000 | o  | 11, 1, 1 |||
 37 |          | B        |  0.00000 |  0.00000 | o  | 12, 1, 1 |||
 38 |          | C        |  0.00000 |  0.00000 | o  | 13, 1, 1 |||
 39 |          | D        |  0.00000 |  0.00000 | o  | 14, 1, 1 |||
 40 |          | E        |  0.00000 |  0.00000 | o  | 15, 1, 1 |||
----|----------|----------|----------|----------|----|----------|--------------|----------|-------


connection definition section :

target | site | source:weight
-------|------|---------------------------------------------------------------------------------------------------------------------
    26 |      | 25: 0.00000, 24: 0.00000, 23: 0.00000, 22: 0.00000, 21: 0.00000, 20: 0.00000, 19: 0.00000, 18: 0.00000, 17: 0.00000,
                16: 0.00000, 15: 0.00000, 14: 0.00000, 13: 0.00000, 12: 0.00000, 11: 0.00000, 10: 0.00000,  9: 0.00000,  8: 0.00000,
                 7: 0.00000,  6: 0.00000,  5: 0.00000,  4: 0.00000,  3: 0.00000,  2: 0.00000,  1: 0.00000
    27 |      | 25: 0.00000, 24: 0.00000, 23: 0.00000, 22: 0.00000, 21: 0.00000, 20: 0.00000, 19: 0.00000, 18: 0.00000, 17: 0.00000,
                16: 0.00000, 15: 0.00000, 14: 0.00000, 13: 0.00000, 12: 0.00000, 11: 0.00000, 10: 0.00000,  9: 0.00000,  8: 0.00000,
                 7: 0.00000,  6: 0.00000,  5: 0.00000,  4: 0.00000,  3: 0.00000,  2: 0.00000,  1: 0.00000
    28 |      | 25: 0.00000, 24: 0.00000, 23: 0.00000, 22: 0.00000, 21: 0.00000, 20: 0.00000, 19: 0.00000, 18: 0.00000, 17: 0.00000,
                16: 0.00000, 15: 0.00000, 14: 0.00000, 13: 0.00000, 12: 0.00000, 11: 0.00000, 10: 0.00000,  9: 0.00000,  8: 0.00000,
                 7: 0.00000,  6: 0.00000,  5: 0.00000,  4: 0.00000,  3: 0.00000,  2: 0.00000,  1: 0.00000
    29 |      | 25: 0.00000, 24: 0.00000, 23: 0.00000, 22: 0.00000, 21: 0.00000, 20: 0.00000, 19: 0.00000, 18: 0.00000, 17: 0.00000,
                16: 0.00000, 15: 0.00000, 14: 0.00000, 13: 0.00000, 12: 0.00000, 11: 0.00000, 10: 0.00000,  9: 0.00000,  8: 0.00000,
                 7: 0.00000,  6: 0.00000,  5: 0.00000,  4: 0.00000,  3: 0.00000,  2: 0.00000,  1: 0.00000
    30 |      | 25: 0.00000, 24: 0.00000, 23: 0.00000, 22: 0.00000, 21: 0.00000, 20: 0.00000, 19: 0.00000, 18: 0.00000, 17: 0.00000,
                16: 0.00000, 15: 0.00000, 14: 0.00000, 13: 0.00000, 12: 0.00000, 11: 0.00000, 10: 0.00000,  9: 0.00000,  8: 0.00000,
                 7: 0.00000,  6: 0.00000,  5: 0.00000,  4: 0.00000,  3: 0.00000,  2: 0.00000,  1: 0.00000
    31 |      | 25: 0.00000, 24: 0.00000, 23: 0.00000, 22: 0.00000, 21: 0.00000, 20: 0.00000, 19: 0.00000, 18: 0.00000, 17: 0.00000,
                16: 0.00000, 15: 0.00000, 14: 0.00000, 13: 0.00000, 12: 0.00000, 11: 0.00000, 10: 0.00000,  9: 0.00000,  8: 0.00000,
                 7: 0.00000,  6: 0.00000,  5: 0.00000,  4: 0.00000,  3: 0.00000,  2: 0.00000,  1: 0.00000
    32 |      | 25: 0.00000, 24: 0.00000, 23: 0.00000, 22: 0.00000, 21: 0.00000, 20: 0.00000, 19: 0.00000, 18: 0.00000, 17: 0.00000,
                16: 0.00000, 15: 0.00000, 14: 0.00000, 13: 0.00000, 12: 0.00000, 11: 0.00000, 10: 0.00000,  9: 0.00000,  8: 0.00000,
                 7: 0.00000,  6: 0.00000,  5: 0.00000,  4: 0.00000,  3: 0.00000,  2: 0.00000,  1: 0.00000
    33 |      | 25: 0.00000, 24: 0.00000, 23: 0.00000, 22: 0.00000, 21: 0.00000, 20: 0.00000, 19: 0.00000, 18: 0.00000, 17: 0.00000,
                16: 0.00000, 15: 0.00000, 14: 0.00000, 13: 0.00000, 12: 0.00000, 11: 0.00000, 10: 0.00000,  9: 0.00000,  8: 0.00000,
                 7: 0.00000,  6: 0.00000,  5: 0.00000,  4: 0.00000,  3: 0.00000,  2: 0.00000,  1: 0.00000
    34 |      | 25: 0.00000, 24: 0.00000, 23: 0.00000, 22: 0.00000, 21: 0.00000, 20: 0.00000, 19: 0.00000, 18: 0.00000, 17: 0.00000,
                16: 0.00000, 15: 0.00000, 14: 0.00000, 13: 0.00000, 12: 0.00000, 11: 0.00000, 10: 0.00000,  9: 0.00000,  8: 0.00000,
                 7: 0.00000,  6: 0.00000,  5: 0.00000,  4: 0.00000,  3: 0.00000,  2: 0.00000,  1: 0.00000
    35 |      | 25: 0.00000, 24: 0.00000, 23: 0.00000, 22: 0.00000, 21: 0.00000, 20: 0.00000, 19: 0.00000, 18: 0.00000, 17: 0.00000,
                16: 0.00000, 15: 0.00000, 14: 0.00000, 13: 0.00000, 12: 0.00000, 11: 0.00000, 10: 0.00000,  9: 0.00000,  8: 0.00000,
                 7: 0.00000,  6: 0.00000,  5: 0.00000,  4: 0.00000,  3: 0.00000,  2: 0.00000,  1: 0.00000
    36 |      | 35: 0.00000, 34: 0.00000, 33: 0.00000, 32: 0.00000, 31: 0.00000, 30: 0.00000, 29: 0.00000, 28: 0.00000, 27: 0.00000,
                26: 0.00000
    37 |      | 35: 0.00000, 34: 0.00000, 33: 0.00000, 32: 0.00000, 31: 0.00000, 30: 0.00000, 29: 0.00000, 28: 0.00000, 27: 0.00000,
                26: 0.00000
    38 |      | 35: 0.00000, 34: 0.00000, 33: 0.00000, 32: 0.00000, 31: 0.00000, 30: 0.00000, 29: 0.00000, 28: 0.00000, 27: 0.00000,
                26: 0.00000
    39 |      | 35: 0.00000, 34: 0.00000, 33: 0.00000, 32: 0.00000, 31: 0.00000, 30: 0.00000, 29: 0.00000, 28: 0.00000, 27: 0.00000,
                26: 0.00000
    40 |      | 35: 0.00000, 34: 0.00000, 33: 0.00000, 32: 0.00000, 31: 0.00000, 30: 0.00000, 29: 0.00000, 28: 0.00000, 27: 0.00000,
                26: 0.00000
-------|------|---------------------------------------------------------------------------------------------------------------------


layer definition section :

layer | unitNo.
------|----------------------------------------------------------------------------------------------------------------------------
    2 | 26, 27, 28, 29, 30, 31, 32, 33, 34, 35
    3 | 36, 37, 38, 39, 40
------|----------------------------------------------------------------------------------------------------------------------------
