SNNS network definition file V1.4-3D
generated at Wed Dec 12 17:35:54 2007

network name : default
source files :
no. of units : 31
no. of connections : 90
no. of unit types : 0
no. of site types : 0


learning function : Std_Backpropagation
update function   : Topological_Order


unit default section :

act      | bias     | st | subnet | layer | act func     | out func
---------|----------|----|--------|-------|--------------|-------------
 0.00000 |  0.00000 | h  |      0 |     1 | Act_Logistic | Out_Identity 
---------|----------|----|--------|-------|--------------|-------------


unit definition section :

no. | typeName | unitName | act      | bias     | st | position | act func | out func | sites
----|----------|----------|----------|----------|----|----------|----------|----------|-------
  1 |          | FI1      |  0.00000 |  0.00000 | i  |  1, 1, 1 |||
  2 |          | FS1      |  0.00000 |  0.00000 | i  |  1, 2, 1 |||
  3 |          | FI2      |  0.00000 |  0.00000 | i  |  1, 3, 1 |||
  4 |          | FS2      |  0.00000 |  0.00000 | i  |  1, 4, 1 |||
  5 |          | FI3      |  0.00000 |  0.00000 | i  |  1, 5, 1 |||
  6 |          | FS3      |  0.00000 |  0.00000 | i  |  1, 6, 1 |||
  7 |          | FI4      |  0.00000 |  0.00000 | i  |  1, 7, 1 |||
  8 |          | FS4      |  0.00000 |  0.00000 | i  |  1, 8, 1 |||
  9 |          | FI5      |  0.00000 |  0.00000 | i  |  1, 9, 1 |||
 10 |          | FS5      |  0.00000 |  0.00000 | i  |  1,10, 1 |||
 11 |          | NI11     |  0.00000 |  0.00000 | h  |  5, 3, 1 |||
 12 |          | NI21     |  0.00000 |  0.00000 | h  |  8, 3, 1 |||
 13 |          | NI12     |  0.00000 |  0.00000 | h  |  5, 4, 1 |||
 14 |          | NI22     |  0.00000 |  0.00000 | h  |  8, 4, 1 |||
 15 |          | NI13     |  0.00000 |  0.00000 | h  |  5, 5, 1 |||
 16 |          | NI23     |  0.00000 |  0.00000 | h  |  8, 5, 1 |||
 17 |          | NI14     |  0.00000 |  0.00000 | h  |  5, 6, 1 |||
 18 |          | NI24     |  0.00000 |  0.00000 | h  |  8, 6, 1 |||
 19 |          | NI15     |  0.00000 |  0.00000 | h  |  5, 7, 1 |||
 20 |          | NI25     |  0.00000 |  0.00000 | h  |  8, 7, 1 |||
 21 |          | NS100%   |  0.00000 |  0.00000 | o  | 13, 1, 1 |||
 22 |          | NS90%    |  0.00000 |  0.00000 | o  | 13, 2, 1 |||
 23 |          | NS80%    |  0.00000 |  0.00000 | o  | 13, 3, 1 |||
 24 |          | NS70%    |  0.00000 |  0.00000 | o  | 13, 4, 1 |||
 25 |          | NS60%    |  0.00000 |  0.00000 | o  | 13, 5, 1 |||
 26 |          | NS50%    |  0.00000 |  0.00000 | o  | 13, 6, 1 |||
 27 |          | NS40%    |  0.00000 |  0.00000 | o  | 13, 7, 1 |||
 28 |          | NS30%    |  0.00000 |  0.00000 | o  | 13, 8, 1 |||
 29 |          | NS20%    |  0.00000 |  0.00000 | o  | 13, 9, 1 |||
 30 |          | NS10%    |  0.00000 |  0.00000 | o  | 13,10, 1 |||
 31 |          | NS0%     |  0.00000 |  0.00000 | o  | 13,11, 1 |||
----|----------|----------|----------|----------|----|----------|----------|----------|-------


connection definition section :

target | site | source:weight
-------|------|---------------------------------------------------------------------------------------------------------------------
    11 |      |  2: 0.00000,  1: 0.00000
    12 |      | 19: 0.00000, 17: 0.00000, 15: 0.00000, 13: 0.00000, 11: 0.00000
    13 |      |  4: 0.00000,  3: 0.00000
    14 |      | 19: 0.00000, 17: 0.00000, 15: 0.00000, 13: 0.00000, 11: 0.00000
    15 |      |  6: 0.00000,  5: 0.00000
    16 |      | 19: 0.00000, 17: 0.00000, 15: 0.00000, 13: 0.00000, 11: 0.00000
    17 |      |  8: 0.00000,  7: 0.00000
    18 |      | 19: 0.00000, 17: 0.00000, 15: 0.00000, 13: 0.00000, 11: 0.00000
    19 |      | 10: 0.00000,  9: 0.00000
    20 |      | 19: 0.00000, 17: 0.00000, 15: 0.00000, 13: 0.00000, 11: 0.00000
    21 |      | 20: 0.00000, 18: 0.00000, 16: 0.00000, 14: 0.00000, 12: 0.00000
    22 |      | 20: 0.00000, 18: 0.00000, 16: 0.00000, 14: 0.00000, 12: 0.00000
    23 |      | 20: 0.00000, 18: 0.00000, 16: 0.00000, 14: 0.00000, 12: 0.00000
    24 |      | 20: 0.00000, 18: 0.00000, 16: 0.00000, 14: 0.00000, 12: 0.00000
    25 |      | 20: 0.00000, 18: 0.00000, 16: 0.00000, 14: 0.00000, 12: 0.00000
    26 |      | 20: 0.00000, 18: 0.00000, 16: 0.00000, 14: 0.00000, 12: 0.00000
    27 |      | 20: 0.00000, 18: 0.00000, 16: 0.00000, 14: 0.00000, 12: 0.00000
    28 |      | 20: 0.00000, 18: 0.00000, 16: 0.00000, 14: 0.00000, 12: 0.00000
    29 |      | 20: 0.00000, 18: 0.00000, 16: 0.00000, 14: 0.00000, 12: 0.00000
    30 |      | 20: 0.00000, 18: 0.00000, 16: 0.00000, 14: 0.00000, 12: 0.00000
    31 |      | 20: 0.00000, 18: 0.00000, 16: 0.00000, 14: 0.00000, 12: 0.00000
-------|------|---------------------------------------------------------------------------------------------------------------------


layer definition section :

layer | unitNo.
------|----------------------------------------------------------------------------------------------------------------------------
    2 | 11, 12, 13, 14, 15, 16, 17, 18, 19, 20
    3 | 21, 22, 23, 24, 25, 26, 27, 28, 29, 30, 31
------|----------------------------------------------------------------------------------------------------------------------------
